2595 100
না -0.26509735 0.46388513 0.028512878 0.10315972 0.17224313 -0.7193867 0.29298463 1.0942999 -0.5778131 -0.29236105 -0.31329343 -0.6890582 -0.14474617 0.16478448 0.21544078 -0.32825693 0.07880987 -0.54719996 -0.21823893 -0.90205574 0.09188063 0.11170416 0.14199455 -0.35845402 -0.11753293 0.027461926 -0.28691667 -0.45964774 -0.43569246 -0.046380088 0.43342397 0.012003883 0.2197108 -0.3077888 -0.03964233 0.5012122 0.13194282 -0.3146904 -0.21588543 -0.9506532 0.07305749 -0.31431112 -0.25421318 0.18659727 0.53198963 -0.22264664 -0.41233048 0.01566375 0.23783804 0.47469908 0.33941245 -0.42068794 -0.1299669 0.05007558 -0.336002 0.38034585 0.17191096 0.035864703 -0.59801775 0.21149899 -0.045329165 0.13847677 -0.14971262 0.06262619 -0.7220406 0.67183745 0.08779911 0.4712361 -0.6900605 0.749722 -0.4671813 0.24928962 0.35478276 -0.20357814 0.50904113 0.3070417 -0.06242597 0.13984811 -0.413713 0.048197705 -0.14134416 -0.0052302317 -0.54071164 0.8083998 -0.011545199 0.05987812 0.17890972 0.4080656 0.5304336 0.08060473 0.49078953 0.2529258 -0.023591012 0.15843725 0.7067968 0.5208319 0.2241049 -0.5228895 0.22635977 -0.032068368
করে -0.30092087 0.50996715 0.026528923 0.10491718 0.20838186 -0.7731784 0.31120303 1.1891944 -0.62246454 -0.32029536 -0.35435295 -0.76099706 -0.15830311 0.17671677 0.24828045 -0.35015532 0.09023108 -0.59653455 -0.22027145 -0.9641678 0.09997417 0.10523451 0.14869712 -0.40429512 -0.12359666 0.036284596 -0.3144349 -0.496949 -0.4565229 -0.031951256 0.49114555 0.011141634 0.22365268 -0.32081378 -0.030360438 0.5564077 0.13733113 -0.3264801 -0.22139958 -1.0050344 0.10133982 -0.35396147 -0.27057394 0.19734296 0.56751937 -0.23091386 -0.42942148 0.0064120027 0.2485541 0.4999381 0.3901624 -0.4752487 -0.12732361 0.06715934 -0.37885773 0.43047836 0.18703164 0.056491364 -0.6335691 0.2328497 -0.061953586 0.15163447 -0.1590538 0.07580141 -0.76936805 0.7229131 0.10565797 0.49134505 -0.7265178 0.8152296 -0.5203228 0.24396256 0.3896908 -0.19960621 0.541688 0.32870397 -0.09064718 0.14619343 -0.43154833 0.065093294 -0.15542355 -0.008027792 -0.59276044 0.8491081 0.00053276593 0.05926329 0.17929699 0.43994668 0.58368087 0.06769388 0.53007865 0.26492357 -0.029101472 0.14995855 0.74833 0.55629045 0.2636513 -0.56106746 0.23561998 -0.03624087
আর -0.28572902 0.4999349 0.014077844 0.090245694 0.21016271 -0.74645245 0.30134735 1.1683815 -0.61790377 -0.30164322 -0.3467047 -0.74727386 -0.14292587 0.16906853 0.24814941 -0.3592439 0.08953316 -0.5794965 -0.22369057 -0.95151544 0.08097911 0.100477114 0.13137156 -0.3936302 -0.116254136 0.026867932 -0.29199386 -0.48612905 -0.46418893 -0.033220146 0.47821012 0.011589502 0.21073125 -0.31446514 -0.041922364 0.54485136 0.13080484 -0.3320891 -0.22875227 -1.007008 0.081902675 -0.34408596 -0.2554034 0.19802739 0.56754583 -0.23655738 -0.43125263 0.008617781 0.24189009 0.4884206 0.3823558 -0.45983478 -0.13969398 0.05357593 -0.38612196 0.4068822 0.17464526 0.04014383 -0.6343051 0.21278149 -0.041995708 0.14507636 -0.13807736 0.08866821 -0.7815242 0.7260678 0.101032965 0.49697614 -0.7390037 0.8030278 -0.49946254 0.26141888 0.3799389 -0.20363055 0.5403536 0.3404449 -0.06677032 0.15246508 -0.43761483 0.07131232 -0.1389656 -0.015786676 -0.600282 0.8471303 -0.006158488 0.055079754 0.17205007 0.44189483 0.5895979 0.07125023 0.5167533 0.27531 -0.015806202 0.1561841 0.75583833 0.5601306 0.26311082 -0.55718386 0.253481 -0.050373692
এই -0.29426047 0.5030929 0.031239768 0.09163697 0.20543048 -0.754609 0.30788893 1.159478 -0.59187883 -0.3113811 -0.33074486 -0.73132545 -0.1481056 0.15224016 0.24343714 -0.34823582 0.086522765 -0.59399277 -0.21195371 -0.9219206 0.09314498 0.09918434 0.1424317 -0.36653313 -0.13531591 0.04254971 -0.29043493 -0.484351 -0.44715407 -0.030531468 0.4690245 0.019956436 0.21201172 -0.3031589 -0.027529575 0.5471984 0.14158861 -0.34029937 -0.23925027 -0.9790346 0.09421074 -0.33379665 -0.24007924 0.17902598 0.56354856 -0.23120755 -0.42265448 0.0057616592 0.24389374 0.48002642 0.38181636 -0.45256186 -0.13612881 0.04405374 -0.37769973 0.39652187 0.16850819 0.053430714 -0.61127174 0.2129039 -0.044610996 0.15531488 -0.13086395 0.08447927 -0.7497397 0.6980899 0.09083186 0.4931954 -0.7245522 0.7732902 -0.48749468 0.2476808 0.36633688 -0.19573945 0.5326073 0.32037035 -0.09142312 0.15553574 -0.42357874 0.072380245 -0.14668088 0.0028088067 -0.5771129 0.83232903 -0.0049482724 0.06002898 0.19347137 0.4579228 0.5736654 0.051729545 0.5094893 0.2626663 -0.028678082 0.14940736 0.7536491 0.5455967 0.25495255 -0.5671708 0.23657368 -0.046502374
কি -0.28089905 0.47746712 0.01830889 0.08805916 0.19894256 -0.721029 0.2952494 1.1137015 -0.585342 -0.28810263 -0.34048325 -0.70961595 -0.15973575 0.15759175 0.21811564 -0.33492815 0.07003716 -0.55587083 -0.1932279 -0.9125214 0.08768349 0.0921149 0.13761947 -0.34918478 -0.12533933 0.038668577 -0.2858949 -0.46355355 -0.44472867 -0.03233788 0.4636501 0.02842279 0.21826746 -0.3082971 -0.017792834 0.5089967 0.12318366 -0.31575936 -0.21933897 -0.9589416 0.08346249 -0.34066895 -0.24940877 0.1882833 0.5448535 -0.23777013 -0.41057378 0.007139849 0.24770425 0.46238548 0.37169543 -0.4303373 -0.108436406 0.04589028 -0.35598707 0.37817737 0.14433615 0.028565396 -0.59972394 0.2018817 -0.03518719 0.13723035 -0.13277483 0.08700952 -0.7333579 0.67844045 0.10120351 0.4791425 -0.69998664 0.7669812 -0.48129973 0.24777931 0.35274473 -0.19105291 0.5183961 0.32415706 -0.08036923 0.1528144 -0.3936785 0.05688329 -0.14744687 -0.013817561 -0.5611122 0.80028147 -0.019782666 0.051720753 0.19154473 0.43403253 0.5407251 0.057622828 0.5081055 0.24705851 -0.0147983795 0.1451997 0.71926975 0.52020746 0.24351408 -0.5270821 0.22656895 -0.037530385
ভারত -0.2932668 0.49213654 0.016766543 0.07470073 0.17782716 -0.7375199 0.30713144 1.150058 -0.6087606 -0.31038457 -0.3393978 -0.73237896 -0.16406305 0.15398994 0.2333787 -0.35960332 0.07813332 -0.58419025 -0.20963022 -0.9315705 0.07511775 0.110887624 0.14351723 -0.3643238 -0.13263382 0.024155343 -0.29819444 -0.49765348 -0.4501995 -0.035831634 0.47257742 0.0010429407 0.21999915 -0.32182655 -0.03411696 0.5482314 0.13924417 -0.3217295 -0.22781383 -0.97915727 0.101107635 -0.34862986 -0.26775652 0.18830405 0.5549956 -0.23928793 -0.42211917 0.021745153 0.24277304 0.47753328 0.3814154 -0.45841795 -0.11321585 0.07435296 -0.38671142 0.41071865 0.19199218 0.034378104 -0.6225391 0.20505734 -0.037359606 0.13920721 -0.13505055 0.06365343 -0.74190384 0.69838893 0.087240115 0.4906955 -0.71885777 0.76750296 -0.4945035 0.25856546 0.39207903 -0.198424 0.5360203 0.34215474 -0.08726303 0.1437926 -0.42496005 0.06869387 -0.13063836 -0.022461398 -0.5697936 0.81900024 -0.0076616257 0.05408912 0.17046323 0.44668818 0.55772966 0.083188504 0.5208618 0.2726339 -0.041143343 0.15522082 0.737245 0.5481808 0.25123513 -0.5435924 0.24039376 -0.054951087
ভারতের -0.27723238 0.4876613 0.020570861 0.08947711 0.19401287 -0.73808175 0.31233028 1.1533823 -0.60408986 -0.30823642 -0.32837787 -0.7271601 -0.15431282 0.17433894 0.23284186 -0.34591585 0.09725311 -0.5804965 -0.20377256 -0.94688815 0.09217668 0.10508578 0.14720035 -0.3739199 -0.12430191 0.031718846 -0.3060838 -0.49542794 -0.4485255 -0.044892315 0.47208408 0.024752801 0.22380525 -0.30874917 -0.040603645 0.5394717 0.124782845 -0.34158427 -0.23990794 -0.996502 0.100171626 -0.34950948 -0.24760425 0.17658426 0.56340677 -0.22855815 -0.43254945 -0.00068579946 0.23598774 0.4796289 0.3721768 -0.46203366 -0.14101979 0.06897699 -0.3754719 0.40097475 0.17527193 0.035215233 -0.6222816 0.202333 -0.048194453 0.13759458 -0.14056581 0.08026422 -0.7632522 0.710846 0.08341928 0.47840077 -0.72211945 0.7820616 -0.5020856 0.25885656 0.37673074 -0.19620962 0.5420228 0.3265765 -0.07304439 0.14369467 -0.43285653 0.078099705 -0.12641934 -0.019046452 -0.58497626 0.839849 -0.003103085 0.052778818 0.18580252 0.43458894 0.55666703 0.07341254 0.5105847 0.26604217 -0.036177505 0.16310842 0.72967476 0.54800475 0.26080272 -0.5472522 0.23427868 -0.035356626
কে -0.27178115 0.48083428 0.043778516 0.11089017 0.19450554 -0.73450273 0.2968357 1.127059 -0.6061837 -0.3049151 -0.33987927 -0.7277709 -0.14258035 0.1588086 0.22782965 -0.3452666 0.082678385 -0.5787092 -0.21384211 -0.93140733 0.093977034 0.11160692 0.13334559 -0.38547006 -0.13126375 0.044295676 -0.2943496 -0.47010943 -0.4468054 -0.021049008 0.4526155 0.027702196 0.21547368 -0.303021 -0.032733638 0.5378952 0.119332924 -0.3284615 -0.23977381 -0.9773147 0.09805088 -0.3341656 -0.24866672 0.18425539 0.558407 -0.24039176 -0.43399417 0.00464538 0.25384045 0.47641465 0.35991266 -0.44985792 -0.1125438 0.050060846 -0.37315822 0.40231058 0.15904033 0.04668576 -0.6111448 0.22553578 -0.036532007 0.14636971 -0.1489764 0.08502079 -0.7448174 0.7001149 0.071560755 0.48836854 -0.7137703 0.76587045 -0.48331752 0.24252006 0.36649698 -0.20470473 0.5214957 0.3219686 -0.06687426 0.13861267 -0.4090416 0.057084695 -0.14827244 -0.006661451 -0.58809566 0.8211164 -0.001159523 0.063686945 0.18424417 0.4561945 0.5790306 0.066895105 0.5103697 0.2594862 -0.033894617 0.16051885 0.7204754 0.5406775 0.2397701 -0.5523167 0.25137213 -0.046808954
হয় -0.29476142 0.49250287 0.032770444 0.10089352 0.20268807 -0.7297947 0.31478128 1.1065825 -0.5995972 -0.28933036 -0.33086258 -0.7223726 -0.139413 0.15935735 0.24454711 -0.33473167 0.06570785 -0.57368714 -0.21699259 -0.9110823 0.085353844 0.115774535 0.15091728 -0.38153133 -0.1255946 0.03386919 -0.2867943 -0.488642 -0.44235444 -0.049033605 0.46801135 0.014328333 0.21545586 -0.28672984 -0.029395187 0.5176898 0.11878002 -0.30738395 -0.21450727 -0.9735027 0.07704321 -0.3265929 -0.24155237 0.17983326 0.5415572 -0.23455934 -0.40993023 0.014917434 0.23527895 0.47143397 0.36337873 -0.43126255 -0.12448154 0.047155958 -0.34349966 0.39228925 0.16944559 0.04474757 -0.57947206 0.198576 -0.062264893 0.13257068 -0.12535803 0.08204449 -0.74009466 0.67563677 0.08230248 0.470791 -0.7085084 0.7739779 -0.49101022 0.2435792 0.36420184 -0.18214124 0.5001723 0.30535653 -0.08335752 0.12983154 -0.42488366 0.05659862 -0.1401411 -0.017092522 -0.5477236 0.8081068 0.0053387783 0.06518942 0.17026168 0.41871205 0.54982185 0.075865924 0.48512062 0.25195023 -0.012141323 0.14471443 0.72285324 0.53321534 0.24565284 -0.5204115 0.24500866 -0.052812107
ও -0.3099032 0.51753825 0.018794619 0.10924354 0.20894149 -0.8044002 0.31339258 1.2315873 -0.6443082 -0.32572755 -0.3610866 -0.7866683 -0.1659713 0.17360364 0.25215647 -0.3597742 0.090930864 -0.63577366 -0.21320547 -1.0027274 0.0956794 0.11880179 0.13573517 -0.40035975 -0.12619674 0.029291328 -0.3285853 -0.51283705 -0.48108655 -0.04395512 0.51022625 0.029939275 0.23826154 -0.3161144 -0.043574054 0.5828394 0.13907073 -0.349379 -0.24144642 -1.0515739 0.10260085 -0.35493633 -0.275334 0.19303162 0.5951046 -0.25113204 -0.46258053 0.020659372 0.26726654 0.5242576 0.40438068 -0.4729445 -0.13636221 0.07711134 -0.39372042 0.42735612 0.17942324 0.04298004 -0.65282875 0.22667728 -0.05217132 0.16877429 -0.14501381 0.084689 -0.8167186 0.7425432 0.09168488 0.50389653 -0.76572824 0.83093476 -0.5275749 0.27401662 0.3918982 -0.2303552 0.5705053 0.34332052 -0.08127122 0.15044938 -0.4438566 0.073846705 -0.14104047 -0.011986776 -0.6219856 0.8969727 -0.0038141396 0.058287144 0.18115781 0.474953 0.61765635 0.08274735 0.5391006 0.2940732 -0.025602592 0.17682986 0.7949272 0.5744453 0.257859 -0.58181065 0.2642409 -0.038476143
তো -0.26020682 0.4652605 0.03251853 0.07806597 0.18435255 -0.72624755 0.2835711 1.0993644 -0.58043045 -0.2989329 -0.31753483 -0.70816016 -0.13780013 0.14609152 0.22837533 -0.3249223 0.07291509 -0.5593928 -0.19398952 -0.9017279 0.08443549 0.09435039 0.13531792 -0.36081895 -0.13185917 0.0383755 -0.2825564 -0.46746352 -0.41532212 -0.029953832 0.44548494 0.026210336 0.21944408 -0.27998522 -0.022289716 0.5132702 0.12412862 -0.31731406 -0.22154872 -0.9480275 0.08019333 -0.32078913 -0.24161206 0.18730308 0.5162021 -0.2307901 -0.411466 0.0068301135 0.22540204 0.46286827 0.3544456 -0.4310986 -0.12366032 0.05422147 -0.34381163 0.38115922 0.15270591 0.040528998 -0.5783648 0.20939946 -0.05178026 0.14087307 -0.13548875 0.08615742 -0.7298242 0.67810243 0.079683796 0.453654 -0.68695796 0.73958606 -0.46294826 0.24837413 0.3475614 -0.1794725 0.50625014 0.3156712 -0.06605936 0.1306935 -0.4048162 0.073073514 -0.13362138 0.007848326 -0.5498523 0.80343926 -0.020428423 0.06490918 0.16972673 0.43074563 0.5487259 0.06706883 0.50267184 0.25544152 -0.02252882 0.15627208 0.70191556 0.5220921 0.24229978 -0.53452665 0.22567022 -0.047901284
হবে -0.26263285 0.48523715 0.025792625 0.09542274 0.19103311 -0.7295362 0.28715792 1.1112514 -0.58796895 -0.2961282 -0.325334 -0.7026625 -0.1462257 0.1550866 0.23869069 -0.34343538 0.072077535 -0.5754148 -0.20426537 -0.91691303 0.08205813 0.09675488 0.13228124 -0.38301212 -0.13949512 0.023223577 -0.29665035 -0.46569014 -0.4198678 -0.04254321 0.4520219 0.006869567 0.20960121 -0.28889936 -0.036253862 0.5179894 0.12456642 -0.31180584 -0.22995377 -0.9619606 0.08199849 -0.32414183 -0.24287234 0.19991219 0.5362425 -0.22719975 -0.39774427 0.01013346 0.23370901 0.47582966 0.35918963 -0.43981236 -0.10983941 0.06224411 -0.3696441 0.3935732 0.17307293 0.049841743 -0.5976438 0.20259407 -0.0468078 0.14586833 -0.14223288 0.06961305 -0.7321778 0.6803698 0.10294341 0.47642693 -0.70445955 0.7584698 -0.48735794 0.2537114 0.36119074 -0.18857107 0.5137657 0.32520032 -0.084899224 0.15232879 -0.42002094 0.057818674 -0.1392709 0.004005869 -0.5661338 0.80540526 0.009152717 0.057709523 0.16120517 0.41716424 0.5591583 0.07866995 0.50235146 0.24739741 -0.041205805 0.15343022 0.71792406 0.5179028 0.23397061 -0.53380466 0.22555253 -0.043125767
যে -0.28791863 0.48852247 0.03481036 0.074543744 0.20274147 -0.743133 0.30557755 1.166621 -0.59166354 -0.31703 -0.34655315 -0.746451 -0.16763039 0.155789 0.22923864 -0.35831562 0.0820328 -0.5852358 -0.20866872 -0.9454689 0.08312485 0.11161788 0.13329753 -0.36947334 -0.1280034 0.04362702 -0.3095654 -0.48312193 -0.45599994 -0.030191757 0.46127412 0.02306257 0.2232228 -0.31269452 -0.03762094 0.52792484 0.123110406 -0.33867738 -0.23051183 -0.99554086 0.08657063 -0.3372841 -0.2567417 0.19065982 0.5520691 -0.24733692 -0.41668957 0.0062824967 0.23981524 0.49632236 0.38528746 -0.4607228 -0.12221217 0.052267864 -0.3702724 0.39994204 0.17044523 0.04150004 -0.6072149 0.2207654 -0.057422873 0.14063284 -0.13761686 0.08256066 -0.7660793 0.70782787 0.1002017 0.48912415 -0.73299366 0.791512 -0.4926842 0.25721124 0.38415042 -0.21041754 0.5350498 0.33235517 -0.07219393 0.13603583 -0.44060922 0.07117519 -0.14979577 -0.0008833401 -0.5841987 0.8478133 -0.009627662 0.063362986 0.18982369 0.44079444 0.56205904 0.07352469 0.5247197 0.2604775 -0.017356334 0.1489896 0.74457884 0.54999644 0.26344442 -0.5398752 0.24587344 -0.033764593
জন্য -0.29913127 0.51671433 0.017056812 0.083083786 0.194926 -0.7516627 0.29318476 1.152969 -0.6123027 -0.31139514 -0.34689894 -0.73613524 -0.16857077 0.15629743 0.2514488 -0.34026137 0.09548435 -0.58495444 -0.1984862 -0.94951665 0.104183376 0.11036889 0.14226648 -0.36798766 -0.11554918 0.04765496 -0.3157961 -0.5041804 -0.45284796 -0.03153339 0.47826707 0.02306736 0.23017435 -0.31473252 -0.02145071 0.5392113 0.11927554 -0.31709468 -0.231501 -1.006034 0.087631755 -0.34868622 -0.24683385 0.19522479 0.5602332 -0.25274646 -0.43673554 0.010646992 0.25705296 0.47741702 0.3788507 -0.4537335 -0.1388933 0.07132115 -0.37992188 0.4182644 0.1814896 0.04311694 -0.62832355 0.22499698 -0.036257368 0.15711744 -0.13779865 0.090520985 -0.7544418 0.7051857 0.103868015 0.49745268 -0.710064 0.78780794 -0.50448745 0.24742812 0.36765862 -0.2017019 0.55495894 0.35454518 -0.08569508 0.15346812 -0.42848814 0.0653305 -0.13276117 -0.016468033 -0.57025784 0.8477177 -0.00011404929 0.070390396 0.19187951 0.45387378 0.57332146 0.06344292 0.53289956 0.2745598 -0.02910894 0.1576811 0.7331587 0.54223305 0.2600374 -0.5571232 0.22916947 -0.032992616
কথা -0.24741468 0.46573603 0.023772946 0.074805394 0.19550247 -0.6992561 0.2897335 1.0648423 -0.5367573 -0.29848072 -0.30383533 -0.68923503 -0.15653166 0.13692203 0.20831281 -0.30542603 0.08182341 -0.5434782 -0.19096948 -0.86597353 0.09081341 0.10349003 0.12155579 -0.35081568 -0.12813155 0.040256888 -0.26854414 -0.45934412 -0.39763242 -0.040875424 0.42728472 0.013664266 0.20002608 -0.29112718 -0.039674677 0.47872385 0.13524996 -0.2955784 -0.20600094 -0.9129402 0.08643114 -0.31790575 -0.21908943 0.17947319 0.52611816 -0.20131989 -0.40454265 0.010162546 0.22998059 0.45874113 0.3514711 -0.40660995 -0.11167063 0.041080628 -0.34118792 0.36388302 0.16445199 0.04323226 -0.56765795 0.19833294 -0.055027362 0.12763903 -0.1349971 0.08685111 -0.6944908 0.65979445 0.0842972 0.44276237 -0.6637856 0.7231718 -0.46111733 0.2180846 0.3503687 -0.18765143 0.48702276 0.29183984 -0.062496506 0.14071679 -0.39264783 0.07127909 -0.14132954 -0.0017090298 -0.52864903 0.75588346 0.004971235 0.0672107 0.17837146 0.42412826 0.52196956 0.048857328 0.48352674 0.25202045 -0.017220378 0.15622452 0.68771785 0.49022073 0.22799943 -0.49861735 0.20721315 -0.02174234
থেকে -0.31562257 0.53492033 0.032196652 0.10790287 0.20736438 -0.8064112 0.31170413 1.2448196 -0.655748 -0.3175728 -0.37495136 -0.8068998 -0.17059292 0.18717729 0.24432251 -0.38412637 0.07822765 -0.62286335 -0.2149444 -1.0046617 0.093743615 0.12551112 0.13751964 -0.41270563 -0.1451296 0.03373731 -0.32117328 -0.5163522 -0.48416972 -0.049412824 0.49679238 0.011524857 0.24253868 -0.31919965 -0.045772593 0.5935409 0.15027796 -0.36312088 -0.25991225 -1.0525888 0.11385783 -0.3666858 -0.28888547 0.20796925 0.60272956 -0.24778081 -0.46520692 -0.0004747602 0.26523843 0.50047886 0.39736113 -0.49115163 -0.12668431 0.07857345 -0.40759438 0.4480413 0.19738992 0.041779324 -0.65277284 0.24123144 -0.05034794 0.15314914 -0.1690808 0.07780001 -0.80128443 0.74547786 0.09192763 0.527909 -0.77004004 0.8574335 -0.54806453 0.26848865 0.40737608 -0.22737093 0.58442247 0.37016925 -0.08549647 0.1517507 -0.45473784 0.06717902 -0.15953521 -0.012929168 -0.62998974 0.9019541 -0.0131403925 0.07426382 0.18092151 0.4699908 0.623792 0.09236066 0.55022407 0.28977868 -0.040561557 0.15731442 0.77598345 0.5939428 0.2752587 -0.5762078 0.26641384 -0.042064946
একটা -0.2688693 0.46319446 0.03539828 0.08779123 0.20339012 -0.7143943 0.28548896 1.1127628 -0.5728545 -0.29664883 -0.3341058 -0.7178909 -0.15800716 0.16272964 0.21242231 -0.31911203 0.0598704 -0.56196207 -0.2006154 -0.90757567 0.10046662 0.10593126 0.131584 -0.35400862 -0.12052362 0.049889002 -0.27167636 -0.47799683 -0.4321279 -0.033569243 0.45393094 0.018820425 0.2132974 -0.2976785 -0.024392135 0.51785636 0.13120613 -0.3227597 -0.22898923 -0.9652045 0.08470647 -0.33322272 -0.24175526 0.17998645 0.5389712 -0.2237436 -0.42759362 0.00424333 0.24748997 0.4718152 0.35633606 -0.44623873 -0.11411448 0.05738807 -0.3507042 0.38331395 0.15011032 0.026180001 -0.59622246 0.20680355 -0.035450336 0.14806078 -0.13010266 0.08888959 -0.72437435 0.6862753 0.0748143 0.4744402 -0.6902968 0.7569225 -0.45958263 0.24924207 0.3523216 -0.19789143 0.50997335 0.30173153 -0.0660718 0.13469362 -0.39091632 0.06268936 -0.133194 -0.01698258 -0.57119995 0.7813895 -0.015022886 0.061928675 0.16796368 0.4259489 0.5462628 0.052333463 0.5053149 0.26071134 -0.014858732 0.15495913 0.705911 0.53480333 0.22301562 -0.53900385 0.21777076 -0.030374248
আছে -0.2790559 0.49905246 0.025130624 0.07948771 0.2110337 -0.74461174 0.31438807 1.1450082 -0.6033845 -0.31075275 -0.34123212 -0.7390281 -0.14115508 0.15651692 0.24508312 -0.3490898 0.08300665 -0.57870686 -0.19625548 -0.9365081 0.09921186 0.100739524 0.12518644 -0.38036555 -0.12878264 0.028700303 -0.29667813 -0.49712762 -0.4437881 -0.038372397 0.4588763 0.025978979 0.20783614 -0.31469876 -0.01922572 0.5407805 0.120275296 -0.3230241 -0.21706548 -0.99153733 0.09691766 -0.35331407 -0.23647274 0.1873505 0.5552711 -0.24587718 -0.42545652 0.010164421 0.24294233 0.47774756 0.38379115 -0.43588108 -0.12037471 0.057610523 -0.34961662 0.4032164 0.17468059 0.04780333 -0.605845 0.21203706 -0.051995497 0.13720435 -0.15265836 0.0868048 -0.74317807 0.7006099 0.093914956 0.48018622 -0.695066 0.77240103 -0.48792484 0.23483646 0.37026787 -0.18953863 0.53849685 0.33309236 -0.0673375 0.15112384 -0.41314527 0.08240699 -0.13926513 0.0042292546 -0.56680644 0.8225887 0.0061877747 0.066465914 0.18913868 0.4414419 0.5739394 0.07190918 0.5194185 0.26664415 -0.017777188 0.15112722 0.73715186 0.5488447 0.24048653 -0.5432766 0.23730409 -0.051124036
কোন -0.24325752 0.43415818 0.012841341 0.08207191 0.1807344 -0.6819987 0.28319353 1.0583566 -0.5519784 -0.2885369 -0.31606564 -0.66725767 -0.13984892 0.16384512 0.22464043 -0.31407005 0.08107711 -0.52206546 -0.17627715 -0.8421102 0.09140449 0.086391196 0.11463796 -0.348344 -0.104289696 0.026567575 -0.28750566 -0.4340525 -0.39647827 -0.047087893 0.43812802 0.015863376 0.19325544 -0.28374484 -0.025181046 0.47938976 0.12204214 -0.28922656 -0.19415152 -0.915946 0.07303343 -0.31669265 -0.21279171 0.18169165 0.5010691 -0.21408173 -0.3894952 0.010485474 0.23357916 0.44049612 0.33002272 -0.42179978 -0.12441 0.05576162 -0.32618767 0.38792416 0.15818284 0.048139304 -0.54357105 0.19189388 -0.040982738 0.14465201 -0.12477567 0.09377283 -0.6998888 0.65629053 0.09268626 0.46029115 -0.65559083 0.72167575 -0.44291073 0.22743824 0.34578943 -0.1775663 0.49644434 0.29641542 -0.07068678 0.13905115 -0.4037503 0.053543705 -0.13385844 -0.005968848 -0.5290028 0.76885957 0.005910259 0.049412087 0.16130005 0.403156 0.51229024 0.055731975 0.4743753 0.22889657 -0.024808368 0.16051535 0.6697967 0.50418216 0.23514985 -0.49520153 0.21638063 -0.037096493
করতে -0.28166047 0.50838137 0.027632687 0.10675324 0.18674937 -0.7600601 0.3207187 1.1636987 -0.61106646 -0.31823283 -0.3472276 -0.73865 -0.13904925 0.16449535 0.2462013 -0.35109338 0.094748944 -0.6064838 -0.22553006 -0.9718957 0.08573646 0.116818555 0.13352509 -0.3925802 -0.14338969 0.042791948 -0.31533465 -0.51615864 -0.45521337 -0.03202305 0.47590828 0.009063741 0.22933199 -0.32038805 -0.047836874 0.5583469 0.119431175 -0.33608377 -0.24064161 -1.023676 0.094674766 -0.33189803 -0.25580114 0.21717972 0.57241935 -0.23611613 -0.44121864 -0.0036346356 0.25395447 0.5075411 0.36563465 -0.46650714 -0.13968454 0.051158227 -0.36535272 0.42835754 0.18799654 0.051129166 -0.6294649 0.21777943 -0.054292295 0.13733168 -0.15505487 0.07373626 -0.77590114 0.72737443 0.08863134 0.493943 -0.74274063 0.8047857 -0.5112826 0.257076 0.39059857 -0.21628115 0.53424186 0.33488095 -0.06942517 0.15577559 -0.44529304 0.059699018 -0.15128753 -0.013581032 -0.5915349 0.8625553 0.003150108 0.060312863 0.1851463 0.44663763 0.57280517 0.06402273 0.5266656 0.27476284 -0.04638053 0.1807377 0.7395288 0.54138505 0.24674284 -0.54854697 0.24600439 -0.030665008
সাথে -0.27198586 0.47959572 0.020184554 0.09555433 0.19380283 -0.715223 0.28797612 1.1107873 -0.5761667 -0.29595378 -0.32558957 -0.71195924 -0.14378722 0.1583807 0.23418327 -0.33912447 0.07245336 -0.558063 -0.20650075 -0.90589654 0.08584818 0.109165326 0.11797484 -0.34942496 -0.1285325 0.028465439 -0.2847058 -0.47904488 -0.44200993 -0.04534246 0.44997182 0.002354566 0.21154246 -0.2973768 -0.03404216 0.51998276 0.13148935 -0.30236405 -0.21841782 -0.95648694 0.09143859 -0.32916108 -0.25344577 0.19333261 0.5380567 -0.24019678 -0.42212865 0.007993915 0.24328367 0.4692094 0.36958107 -0.44315183 -0.12205303 0.056443855 -0.36531997 0.4020499 0.17670375 0.038506977 -0.6053477 0.19814594 -0.044449758 0.15439835 -0.13567379 0.061613463 -0.7386598 0.6845867 0.086079784 0.46516034 -0.68275505 0.74763125 -0.472675 0.2415494 0.3532795 -0.19184345 0.5275437 0.33052534 -0.06931448 0.14685798 -0.41762343 0.064881496 -0.1392476 -0.00886214 -0.5590615 0.8009191 -0.013567834 0.073688045 0.1767067 0.42462307 0.54179436 0.07753051 0.4885915 0.262358 -0.026120923 0.1675619 0.71360856 0.5193507 0.24541965 -0.53280693 0.21592365 -0.04445205
আমাদের -0.27723664 0.48304945 0.030993465 0.0929355 0.17983691 -0.70388955 0.28509906 1.1124523 -0.5822083 -0.2882156 -0.32103255 -0.70193624 -0.13533081 0.1558281 0.21579386 -0.34539926 0.096673235 -0.5699311 -0.20267813 -0.8959671 0.08074397 0.09273558 0.12841299 -0.36506832 -0.11485947 0.037124828 -0.29831016 -0.46643683 -0.42578307 -0.034033176 0.45527345 0.008002038 0.2224385 -0.31581664 -0.022188768 0.51147187 0.12546936 -0.33115193 -0.22654827 -0.9545682 0.0819136 -0.33086625 -0.24279939 0.17927021 0.531107 -0.24114235 -0.4053784 0.004485638 0.21806417 0.46784973 0.36797932 -0.42674863 -0.13617209 0.067580774 -0.3702783 0.388493 0.1715116 0.044845775 -0.6050117 0.20276754 -0.041844048 0.1472861 -0.14998274 0.08451284 -0.7327113 0.6736571 0.10040658 0.478346 -0.6897901 0.7641589 -0.47354823 0.25756985 0.36902967 -0.20128562 0.5189004 0.31190497 -0.06946927 0.1401818 -0.40868258 0.079915404 -0.1454769 -0.024556493 -0.54668504 0.81110454 -0.015519143 0.06076982 0.17365682 0.4235823 0.5367844 0.07713912 0.50707555 0.24412191 -0.028211059 0.14667587 0.692822 0.52572954 0.23635301 -0.5128398 0.22329131 -0.038914636
সব -0.28055462 0.48993978 0.032786462 0.10214714 0.19351877 -0.73957604 0.29474202 1.1380069 -0.5960253 -0.3045928 -0.3457816 -0.7369906 -0.14201745 0.1641721 0.24039344 -0.33397156 0.06886883 -0.57553357 -0.18846284 -0.9170765 0.093788765 0.111510165 0.12034761 -0.35915488 -0.115373924 0.04411173 -0.29968384 -0.47335997 -0.4352916 -0.038059592 0.4541804 0.03176573 0.20915306 -0.30631897 -0.029445857 0.5416188 0.13972203 -0.33622015 -0.23499924 -0.96868426 0.09500719 -0.33717036 -0.25867596 0.17763242 0.54862154 -0.23567395 -0.4237855 0.013334477 0.23926227 0.46926513 0.38387606 -0.45068768 -0.13859876 0.07102529 -0.3656941 0.41137543 0.16599257 0.033650357 -0.60900146 0.20512031 -0.05960656 0.14639239 -0.14101171 0.090763964 -0.7415094 0.69524103 0.08446475 0.47143063 -0.7166132 0.78062445 -0.49777216 0.2499108 0.3622922 -0.20971039 0.5171426 0.331403 -0.0880647 0.14303908 -0.41655633 0.08072351 -0.1433253 -0.0030699838 -0.56195426 0.814662 -0.0065813344 0.06730341 0.1827205 0.4433934 0.57148314 0.069113255 0.50998634 0.26320177 -0.03747369 0.16111791 0.72939736 0.52666193 0.24324864 -0.54600155 0.23467158 -0.03152397
এর -0.3001334 0.5051105 0.03372272 0.089163296 0.19661048 -0.7798755 0.30263117 1.2026902 -0.62388325 -0.3202157 -0.3643163 -0.7649652 -0.16049236 0.17313789 0.25625673 -0.35547104 0.09421467 -0.6252074 -0.20416185 -0.97246516 0.10608594 0.11163333 0.1423351 -0.4068168 -0.14037892 0.043565772 -0.3118521 -0.50776076 -0.45659935 -0.038319517 0.5004531 0.015690014 0.21944873 -0.32558772 -0.031611558 0.5516246 0.14180182 -0.33968583 -0.24820586 -1.0205444 0.10123682 -0.35015914 -0.25479737 0.1821964 0.5806569 -0.25548983 -0.45417345 0.009935065 0.25050762 0.5060894 0.3937865 -0.47098175 -0.12573422 0.073840514 -0.39257357 0.43100983 0.18559492 0.055637114 -0.63522047 0.22305323 -0.05194632 0.15427603 -0.15237224 0.09396207 -0.7911423 0.7360096 0.10127709 0.49612314 -0.7398032 0.82913214 -0.51692194 0.2631752 0.37960267 -0.21877949 0.56177425 0.33812058 -0.07305326 0.15077314 -0.44617823 0.07776644 -0.14677428 -0.012619581 -0.60303277 0.86853486 1.6892072e-05 0.06300824 0.17332527 0.47499263 0.58408225 0.07559119 0.5381984 0.26856717 -0.031099867 0.15618847 0.75641733 0.5742932 0.2749309 -0.57349557 0.24950027 -0.031397812
বলে -0.2760497 0.46556398 0.026051033 0.08165635 0.17866611 -0.72205657 0.30182293 1.0998434 -0.5750517 -0.3008435 -0.32154638 -0.69643587 -0.15014072 0.15718403 0.22087418 -0.3175976 0.07506772 -0.54275006 -0.21813339 -0.8904924 0.07029668 0.099376954 0.119563885 -0.3496711 -0.12766877 0.024631293 -0.27631348 -0.4778284 -0.42358205 -0.044733282 0.45679095 0.02775615 0.211389 -0.28447196 -0.023679368 0.49479553 0.13689855 -0.32426402 -0.20276682 -0.9372058 0.078794725 -0.3297611 -0.22177666 0.16831364 0.53928286 -0.2330088 -0.3963924 0.013933848 0.2424197 0.45754734 0.3643318 -0.4179983 -0.11366415 0.061348394 -0.3408966 0.3942843 0.17187314 0.05171548 -0.57361424 0.21192725 -0.036404703 0.14121735 -0.13502756 0.08876849 -0.7141072 0.670901 0.07981435 0.45013896 -0.683786 0.7563054 -0.4718022 0.22848383 0.35440746 -0.19022627 0.5076503 0.31172916 -0.07055844 0.14795572 -0.39708734 0.065985225 -0.12201848 -0.0011053539 -0.5532109 0.7962953 0.004192903 0.06019 0.16619992 0.42600855 0.5488496 0.07174534 0.48894182 0.24080904 -0.021466471 0.14945261 0.70911455 0.5073336 0.25004494 -0.5326064 0.23414536 -0.047437213
আমি -0.26387224 0.48878577 0.030634694 0.086650535 0.19545962 -0.73566866 0.28293496 1.122754 -0.5851845 -0.28937405 -0.34838203 -0.7094084 -0.14986128 0.15873718 0.21835338 -0.33310694 0.07376146 -0.5640135 -0.21699719 -0.92301613 0.07799139 0.101596825 0.12337447 -0.3792938 -0.1251284 0.040240303 -0.29290557 -0.48063383 -0.43369007 -0.023495158 0.4594317 0.027043978 0.20706531 -0.30265298 -0.03250497 0.5348062 0.13309957 -0.32240763 -0.21785186 -0.9841829 0.08178306 -0.3361778 -0.2334688 0.17927533 0.5334042 -0.23398978 -0.42838186 -0.0020695478 0.23789132 0.46795565 0.36623818 -0.4475523 -0.13204123 0.04809997 -0.35341212 0.38153288 0.15278485 0.03746878 -0.61599827 0.21109709 -0.03949029 0.1416693 -0.13897361 0.092623375 -0.72319955 0.6958407 0.10365542 0.45829692 -0.7157422 0.7606685 -0.49012062 0.2321572 0.34220392 -0.20062469 0.51630265 0.30734733 -0.08634118 0.15205126 -0.40542746 0.070699416 -0.13144892 0.0061444067 -0.57215005 0.81222063 -0.011839063 0.066855915 0.18272421 0.4535556 0.5547274 0.06534756 0.4973143 0.26085436 -0.008912167 0.14941892 0.71846384 0.51868707 0.22893639 -0.5329342 0.22772151 -0.03291952
করা -0.30747676 0.49913675 0.019478228 0.109340586 0.20325124 -0.7457442 0.31656992 1.1681254 -0.6312789 -0.29948708 -0.35191017 -0.7354194 -0.14013009 0.16851403 0.22478229 -0.359355 0.09524727 -0.6093058 -0.20961602 -0.96015877 0.11229478 0.10853318 0.15235417 -0.39713797 -0.1438607 0.024981687 -0.31184807 -0.48710752 -0.46582946 -0.020857148 0.47707716 0.02363556 0.22271962 -0.30137056 -0.045369014 0.559497 0.11247657 -0.33038053 -0.2385101 -1.0091679 0.10445754 -0.35068452 -0.27347398 0.18503027 0.5724654 -0.2506678 -0.41902223 -0.00395237 0.2580198 0.48432517 0.38200173 -0.45868224 -0.1381681 0.06484417 -0.37774166 0.42672917 0.17409232 0.042067338 -0.644246 0.20481071 -0.05241727 0.13733995 -0.1496048 0.072454736 -0.78041863 0.71077836 0.100185625 0.4816186 -0.7426559 0.8102407 -0.51131094 0.24468516 0.3742457 -0.21296072 0.53051454 0.32630053 -0.075334705 0.1488774 -0.43538448 0.07875381 -0.14323118 -0.0065815253 -0.596165 0.86307806 0.00017186406 0.050789293 0.17251256 0.46442765 0.5822112 0.0823677 0.53511107 0.25772658 -0.034028176 0.1453888 0.7257027 0.545977 0.26264647 -0.5475253 0.25914997 -0.041026384
তার -0.29319772 0.5201236 0.023702452 0.10022298 0.2197929 -0.77305865 0.32204953 1.1893575 -0.61376536 -0.31710973 -0.3470136 -0.77237755 -0.15645155 0.17312382 0.23870705 -0.36749578 0.09288218 -0.61918503 -0.2237229 -0.9618581 0.09105654 0.121256016 0.13974227 -0.38676858 -0.13656035 0.028721549 -0.31958905 -0.51253515 -0.46909186 -0.047751393 0.49644843 0.011270679 0.21482092 -0.32913917 -0.04443748 0.5459697 0.13107298 -0.33184832 -0.22664459 -1.0413988 0.08510528 -0.35271138 -0.27888456 0.18819562 0.5761248 -0.24456997 -0.44941413 0.012763792 0.25547308 0.5129425 0.38691178 -0.48436874 -0.12798023 0.0556951 -0.37545508 0.42194405 0.1891657 0.04762051 -0.6397516 0.22962193 -0.059167676 0.14141546 -0.1502688 0.07857467 -0.7994298 0.7318102 0.08453378 0.5025196 -0.75340396 0.81829286 -0.5177516 0.2625048 0.39345762 -0.22318995 0.54815525 0.33209243 -0.09413504 0.14667489 -0.44909987 0.060702547 -0.15015207 -0.006025969 -0.598533 0.87278414 0.008637204 0.054679632 0.17946547 0.46232066 0.6030114 0.07211473 0.5346564 0.27523887 -0.025070718 0.15534338 0.7704132 0.5738678 0.27018324 -0.5659418 0.23893641 -0.045890857
তাদের -0.27356258 0.48655054 0.013360155 0.099881984 0.18441221 -0.7253429 0.30567652 1.1360556 -0.5972246 -0.29547247 -0.3398763 -0.7216898 -0.13498327 0.17364182 0.22234279 -0.3416603 0.1039981 -0.5844192 -0.204292 -0.93392384 0.10423817 0.10313227 0.14056362 -0.36799634 -0.11868813 0.02016605 -0.30281848 -0.48215503 -0.43725002 -0.03427932 0.46835762 0.022197114 0.23036192 -0.3202547 -0.038678646 0.53642815 0.13301781 -0.32763836 -0.23584093 -0.98572874 0.07828277 -0.32629928 -0.24824972 0.17644976 0.565247 -0.23624192 -0.42460167 -0.0011397284 0.24003154 0.4897966 0.35352334 -0.44581538 -0.14108686 0.06398981 -0.3601528 0.3998271 0.17436531 0.04978402 -0.6168043 0.22347167 -0.041917592 0.13168901 -0.1547021 0.08079025 -0.7621234 0.6851595 0.07796486 0.4741647 -0.69528663 0.792976 -0.48840266 0.23865347 0.37831804 -0.19391787 0.532283 0.31429434 -0.08205455 0.14162135 -0.43235782 0.070910685 -0.13710497 -0.024490962 -0.58142567 0.83717364 -0.014405318 0.056095228 0.18117371 0.43683198 0.5610503 0.070407785 0.5059879 0.2584636 -0.038366277 0.15198596 0.71611595 0.5357509 0.23822461 -0.54469115 0.24930523 -0.03171258
তোর -0.28697643 0.48460928 0.037765067 0.10995956 0.21919957 -0.7514468 0.29136482 1.1261429 -0.61248386 -0.28663903 -0.35743883 -0.74689996 -0.14238545 0.16634156 0.23407263 -0.35243997 0.0695509 -0.595214 -0.21308191 -0.93328255 0.08153581 0.10131585 0.123504974 -0.37107855 -0.11315921 0.05794008 -0.2908776 -0.4660596 -0.43758863 -0.01564111 0.4632624 0.05805121 0.21159142 -0.2845867 -0.020057943 0.5352222 0.12685053 -0.34543517 -0.20658211 -0.9824187 0.074404836 -0.3479572 -0.22211996 0.17136341 0.541011 -0.22711135 -0.45828095 0.018299649 0.24432088 0.47102672 0.3853134 -0.452399 -0.12284628 0.057991676 -0.37062025 0.37450075 0.15794683 0.047339555 -0.6115924 0.21288069 -0.04057688 0.14617239 -0.1270997 0.112237595 -0.7497405 0.6908516 0.0911274 0.4673757 -0.73750067 0.7759377 -0.47931498 0.25642815 0.3386248 -0.21064518 0.51290727 0.3061565 -0.07958124 0.15673332 -0.3866385 0.07632436 -0.15581605 -0.0027281265 -0.6063861 0.8271917 -0.019350348 0.07072152 0.18893221 0.4603908 0.58723027 0.055811454 0.5230561 0.2796251 -0.016273111 0.15426162 0.75208896 0.5498713 0.24301411 -0.5893338 0.22513604 -0.026881257
নাই -0.28742865 0.5026709 0.026186513 0.10110315 0.19713517 -0.75083053 0.31382054 1.1621454 -0.5994782 -0.30606687 -0.34300432 -0.7530576 -0.15286763 0.15169075 0.23628749 -0.36124176 0.08206098 -0.6003709 -0.20232782 -0.9470769 0.1076116 0.091116436 0.1305544 -0.37599576 -0.12612857 0.034507502 -0.30550072 -0.49551642 -0.46062252 -0.052291863 0.47933012 0.019956129 0.22846341 -0.32051572 -0.022758778 0.5282654 0.14095439 -0.32616076 -0.23690645 -0.9982627 0.07986865 -0.35561472 -0.2487227 0.19478668 0.54854983 -0.24923703 -0.42520934 0.013309636 0.2481293 0.4912919 0.3735978 -0.45607296 -0.13041322 0.07332064 -0.3772084 0.41506845 0.17704707 0.03739644 -0.6390097 0.22384004 -0.037411362 0.14246102 -0.14151336 0.0865528 -0.77260274 0.7102604 0.089115895 0.49798536 -0.7212519 0.780573 -0.50328606 0.2536892 0.3822901 -0.2062873 0.5479571 0.3361702 -0.08253788 0.15646242 -0.42548695 0.06518972 -0.14835344 -0.008745718 -0.5913346 0.84511924 -0.011806171 0.055496182 0.18328579 0.4459525 0.5846058 0.062682256 0.52258307 0.2727898 -0.019720608 0.16329561 0.7554349 0.5586121 0.24400331 -0.5574882 0.22675385 -0.048313305
দিয়ে -0.30734313 0.5099495 0.042006824 0.10820211 0.20851323 -0.79335386 0.3069234 1.2022029 -0.62707597 -0.3198207 -0.35641056 -0.7834435 -0.14364873 0.17548972 0.24785842 -0.3792527 0.08738002 -0.622612 -0.21055196 -0.98377764 0.09687388 0.11770585 0.14375147 -0.41015902 -0.12664866 0.03761136 -0.32009295 -0.50534517 -0.472348 -0.026169062 0.49283335 0.034007557 0.2323856 -0.32323176 -0.045014948 0.5823804 0.1393655 -0.35797656 -0.23966263 -1.051045 0.10066336 -0.3639709 -0.2617855 0.19721967 0.6002342 -0.24671175 -0.4531133 0.010469981 0.25567928 0.49302104 0.40087986 -0.47327882 -0.1246569 0.058661 -0.40501428 0.4338131 0.17562145 0.05684929 -0.650119 0.23424728 -0.04224853 0.15380609 -0.16058353 0.08192669 -0.78738904 0.7287317 0.09309589 0.5038496 -0.7535871 0.84157586 -0.53014064 0.26503366 0.3884433 -0.21238695 0.5738846 0.35257053 -0.09089873 0.14836495 -0.4338145 0.08179541 -0.13988937 -0.014752571 -0.6199374 0.87389356 -0.009560652 0.069446035 0.18090482 0.46522734 0.61560345 0.08797096 0.554759 0.2819598 -0.04078815 0.15406716 0.77365166 0.5638772 0.25460184 -0.5781467 0.25288686 -0.05472188
বাংলাদেশের -0.27639544 0.47638842 0.013294826 0.08107087 0.19620855 -0.7329822 0.29175177 1.1463531 -0.5801094 -0.30777043 -0.3233702 -0.71612895 -0.1588187 0.16035071 0.23978601 -0.3346718 0.077374816 -0.5851069 -0.20038544 -0.9309001 0.0796607 0.10394959 0.13906595 -0.3775165 -0.117450744 0.02921528 -0.29169115 -0.47731304 -0.44144484 -0.027799731 0.46048442 0.0049538524 0.22873184 -0.31040838 -0.030791666 0.52451044 0.12074656 -0.33226845 -0.22196846 -0.96816903 0.091754064 -0.3472639 -0.2553662 0.17616414 0.558266 -0.23922819 -0.41442162 0.009696362 0.23801716 0.4847578 0.36768708 -0.44952354 -0.124044 0.07169217 -0.35804036 0.3993411 0.17963211 0.048367977 -0.6133847 0.2184207 -0.055179797 0.14356822 -0.13926937 0.07814771 -0.7509698 0.6921008 0.09722326 0.4837845 -0.7116065 0.7791027 -0.48231614 0.2427765 0.3825883 -0.20462815 0.5235707 0.31783587 -0.07987752 0.141555 -0.4264189 0.061610304 -0.12874956 -0.018049207 -0.5786029 0.8299442 0.008642958 0.06619594 0.17100224 0.437214 0.5580629 0.077800505 0.49606094 0.26161176 -0.022771109 0.15183342 0.7199428 0.54006624 0.2649653 -0.5333247 0.24508066 -0.049218405
আমার -0.28074315 0.49196577 0.022485677 0.09311755 0.19846809 -0.76265943 0.31308788 1.1620727 -0.6171899 -0.31833944 -0.34777036 -0.7264624 -0.16737226 0.17565627 0.23463291 -0.34605068 0.07440182 -0.59597456 -0.21055019 -0.9320229 0.07667017 0.10252646 0.14016451 -0.37422547 -0.11895267 0.030089747 -0.28371146 -0.49991715 -0.45754498 -0.021432908 0.47952396 0.014058589 0.21764997 -0.3224703 -0.031428367 0.5428887 0.11972385 -0.33093858 -0.21974656 -1.0069076 0.06975507 -0.3471485 -0.2497529 0.19041844 0.573285 -0.23730215 -0.4356756 0.011719312 0.23658226 0.4883407 0.37531996 -0.44025505 -0.13698755 0.042274654 -0.35897493 0.4071999 0.1608105 0.03790439 -0.6202753 0.20712903 -0.062282853 0.14256899 -0.1532277 0.09187701 -0.76222885 0.70654577 0.09283837 0.47642356 -0.72281456 0.7975511 -0.48702204 0.24914563 0.3602104 -0.19991188 0.5433273 0.31530154 -0.083031386 0.14060964 -0.41718066 0.06859065 -0.13356473 -0.019203719 -0.57221967 0.8265887 0.007353501 0.06790801 0.18401049 0.44434932 0.5858376 0.07604302 0.50851005 0.25636768 -0.006049559 0.15306781 0.7289414 0.5479476 0.23931062 -0.56518936 0.25632602 -0.046316233
কিছু -0.2504713 0.42975187 0.0147114955 0.07526262 0.16926418 -0.6701173 0.25805444 1.0264894 -0.52636856 -0.27583292 -0.2983705 -0.6568108 -0.12883574 0.15530764 0.21208139 -0.31090105 0.06775599 -0.5127662 -0.18938349 -0.8261034 0.09468371 0.098817214 0.11620425 -0.3338532 -0.12031058 0.019584132 -0.259505 -0.4476193 -0.3943804 -0.03812743 0.40728182 0.012371445 0.20046903 -0.28455448 -0.0379763 0.48131546 0.10772626 -0.30088 -0.20271932 -0.88039243 0.09186736 -0.2984076 -0.21723121 0.16019745 0.5000664 -0.2030066 -0.37511373 0.0067315963 0.21973334 0.42696103 0.32217237 -0.40818053 -0.11312516 0.049293917 -0.31478488 0.36169046 0.16042535 0.0426579 -0.53507185 0.17615934 -0.03576288 0.1287977 -0.13106583 0.07374626 -0.6782333 0.6389639 0.080543235 0.43499032 -0.64698833 0.7010178 -0.43558222 0.21993756 0.3372225 -0.17939728 0.48434135 0.30210418 -0.06894556 0.1278789 -0.39362726 0.07508225 -0.12915847 -0.004484786 -0.5139722 0.75246906 0.0011289589 0.054165225 0.16690129 0.39729527 0.5034743 0.07425088 0.45669785 0.23292767 -0.019193113 0.13718382 0.65036076 0.49438736 0.20822923 -0.48923504 0.20342246 -0.031591494
মনে -0.24364026 0.4261339 0.02920723 0.08566798 0.16550788 -0.67721206 0.2736238 1.0157157 -0.5458666 -0.27933455 -0.29558858 -0.64355326 -0.14228533 0.15395157 0.21034887 -0.31125963 0.057001956 -0.52124214 -0.1882612 -0.825162 0.09292134 0.10161592 0.1391205 -0.35093454 -0.119831905 0.022431465 -0.24787301 -0.42283678 -0.41897517 -0.031930137 0.43039536 0.018919349 0.19464481 -0.2908867 -0.017259227 0.46841884 0.102138594 -0.30713 -0.21114343 -0.9032942 0.054966 -0.3075913 -0.23686129 0.16211817 0.5076099 -0.21223986 -0.37761754 0.0031681007 0.23352852 0.43445545 0.34236607 -0.3900388 -0.13593599 0.03047596 -0.3039807 0.36777344 0.14665882 0.04644259 -0.5672421 0.1730284 -0.06049139 0.13729256 -0.14071466 0.06481593 -0.68728435 0.6374666 0.08063528 0.414568 -0.6495439 0.70855945 -0.4465009 0.21440442 0.33683258 -0.17770217 0.46334448 0.29198173 -0.058837272 0.11467529 -0.39014754 0.06296231 -0.14663644 -0.002527932 -0.5333752 0.76093215 -0.010607131 0.044550575 0.15937708 0.39903998 0.524817 0.08492301 0.45887545 0.24105783 -0.005589659 0.14204079 0.6433571 0.48817843 0.219839 -0.47748384 0.21621722 -0.061119333
নিয়ে -0.28055525 0.5038192 0.018958112 0.08927919 0.1912613 -0.7339754 0.31465524 1.1546593 -0.5962965 -0.29520074 -0.33206174 -0.7480606 -0.14917836 0.15879194 0.2323826 -0.3458586 0.08420791 -0.57056874 -0.20656416 -0.93347484 0.09020993 0.09427305 0.11984899 -0.36675727 -0.13466473 0.034955077 -0.29373854 -0.49883944 -0.45866716 -0.04471295 0.45401844 0.022341663 0.23716877 -0.31719893 -0.036973763 0.54649496 0.14696015 -0.3202119 -0.24110161 -0.98069483 0.081119284 -0.33376318 -0.24911332 0.18013139 0.5702706 -0.24880278 -0.41769344 0.018060843 0.25435957 0.4865743 0.37152222 -0.4490463 -0.13573869 0.053215608 -0.36985666 0.39284733 0.17066029 0.043761797 -0.60414416 0.20660901 -0.046032745 0.14459543 -0.15146904 0.07497773 -0.7502222 0.69845736 0.08659747 0.49900422 -0.72131383 0.7801609 -0.48887527 0.25419888 0.37214854 -0.19282688 0.5479039 0.3378612 -0.07534017 0.14191532 -0.41734588 0.07716999 -0.14551942 -0.016670002 -0.5847902 0.8236917 -0.004198862 0.052039374 0.17185727 0.445211 0.5762345 0.07545806 0.50391483 0.2675886 -0.020256499 0.1640235 0.7444671 0.5512113 0.2576202 -0.5353533 0.23749778 -0.04555488
হয়ে -0.29909775 0.50761074 0.041399397 0.08419649 0.20596804 -0.7967712 0.33211836 1.2260901 -0.6368567 -0.32049248 -0.36725888 -0.79045135 -0.17182551 0.16420804 0.2533669 -0.35735625 0.08687566 -0.60897034 -0.2171184 -0.98942614 0.08518637 0.118383974 0.15635413 -0.40004674 -0.12836343 0.053490862 -0.33057877 -0.53443843 -0.49109286 -0.03058552 0.48514423 0.027624704 0.25556475 -0.33920085 -0.056529842 0.5706078 0.12803504 -0.36794898 -0.25946337 -1.0523214 0.09784969 -0.3551362 -0.27831876 0.20953119 0.6052028 -0.26417574 -0.4308092 -0.0017910787 0.2529887 0.5136357 0.4004113 -0.486563 -0.13606353 0.06399998 -0.40898278 0.41613585 0.16061349 0.05293923 -0.6506349 0.20655762 -0.03179621 0.1553136 -0.14951463 0.095404655 -0.8149237 0.75367904 0.07880421 0.5107078 -0.7774154 0.8313532 -0.54345965 0.28039822 0.40630406 -0.23198447 0.57711756 0.36552283 -0.10724434 0.16398224 -0.46620595 0.09612775 -0.13245973 -0.006523966 -0.62686795 0.87806255 -0.009550349 0.06971504 0.20634274 0.4663625 0.5860577 0.05116586 0.53917694 0.28685796 -0.03245302 0.16157885 0.7962536 0.5792207 0.2674305 -0.5646927 0.23687002 -0.04730496
তুই -0.25128508 0.42361662 0.03363088 0.09850371 0.18279296 -0.6588496 0.26250848 0.99221486 -0.5243951 -0.2641088 -0.30608895 -0.65635586 -0.14228334 0.14175984 0.19162646 -0.31468907 0.04444941 -0.5017431 -0.17402607 -0.81686157 0.09474965 0.07309175 0.1211953 -0.32538423 -0.10365097 0.0374918 -0.24259384 -0.42804074 -0.37964636 -0.0056144423 0.4171245 0.045038182 0.20314105 -0.25076517 -0.012948293 0.48401976 0.112549804 -0.29223347 -0.1928668 -0.89197665 0.07711914 -0.29963052 -0.19811629 0.14602357 0.47638887 -0.20634572 -0.3913756 -0.0037341623 0.23239568 0.4284056 0.34498778 -0.39556172 -0.08692613 0.031088846 -0.32809797 0.3388855 0.12741846 0.039540563 -0.5578041 0.19661643 -0.03517938 0.13654366 -0.11314208 0.08820735 -0.66907287 0.61835957 0.08524001 0.4263243 -0.65529865 0.69706416 -0.4238455 0.21420835 0.3127452 -0.17347457 0.46195042 0.28593928 -0.07005142 0.14556256 -0.34074995 0.06466893 -0.1365322 -0.0020497546 -0.5135009 0.7145328 -0.018316459 0.04909536 0.18730073 0.39652228 0.5219044 0.04971169 0.46493036 0.22703277 -0.02861525 0.13275816 0.6549768 0.4922492 0.20034362 -0.5253106 0.19414003 -0.018764807
মুসলিম -0.26463664 0.4528153 0.0055528 0.06996373 0.17163861 -0.67499983 0.27057332 1.0347013 -0.5571808 -0.27805611 -0.29859865 -0.68083596 -0.14439626 0.14845295 0.2161809 -0.32832292 0.08788009 -0.54344136 -0.18354096 -0.8387723 0.09802494 0.10103318 0.13018589 -0.34001064 -0.12383266 0.03320658 -0.28362867 -0.4551566 -0.40730816 -0.04429259 0.4194949 0.015519882 0.20653526 -0.27224684 -0.026154572 0.4903941 0.113589674 -0.29579562 -0.22038424 -0.9077597 0.07434055 -0.31261465 -0.22527105 0.17448005 0.5015654 -0.21908092 -0.3778597 0.0068738735 0.22125275 0.43896532 0.33485466 -0.39870414 -0.10281249 0.06594465 -0.32490614 0.36225912 0.15296598 0.028324755 -0.5636438 0.18278113 -0.041719165 0.1344321 -0.1415232 0.0840714 -0.68914753 0.6422496 0.07909183 0.43912587 -0.65897965 0.7242118 -0.45062387 0.22240067 0.34800673 -0.18531579 0.47992024 0.31497166 -0.07528047 0.13767044 -0.39446574 0.05512695 -0.13075198 -0.01634849 -0.52820164 0.75993556 -0.00074942934 0.059269868 0.16361709 0.40484694 0.5176557 0.06508823 0.46662897 0.23538193 -0.029300898 0.13811259 0.66741 0.50490975 0.21541816 -0.48752657 0.21763518 -0.040358942
এখন -0.28984106 0.49225092 0.022635462 0.08331484 0.19912967 -0.76278734 0.2960802 1.1560423 -0.59259737 -0.3050702 -0.3569251 -0.74056304 -0.16560909 0.1583635 0.23936135 -0.35730246 0.06810164 -0.5987071 -0.19722776 -0.92980963 0.10031485 0.108119205 0.13800749 -0.38162693 -0.11446593 0.040381324 -0.2967767 -0.48601145 -0.46065685 -0.034746163 0.4825222 0.02299787 0.21591471 -0.31368628 -0.03706315 0.53846663 0.13195099 -0.3290238 -0.22967692 -0.9989881 0.085531674 -0.33355823 -0.26391944 0.17792553 0.55782884 -0.24983041 -0.43807945 0.0139140645 0.25223395 0.48938745 0.38699603 -0.45979917 -0.12445788 0.061801635 -0.36572364 0.4162006 0.16768986 0.04270127 -0.6254477 0.21126604 -0.05606024 0.15111353 -0.15569212 0.07911085 -0.76693964 0.7141283 0.08073237 0.49061212 -0.72320575 0.7971504 -0.5055731 0.26540086 0.3841702 -0.20705181 0.53938943 0.32175994 -0.08471851 0.14503631 -0.4247941 0.07256729 -0.15088126 0.0005742499 -0.5949722 0.8511676 -0.00031933436 0.053858306 0.18442449 0.4602482 0.57044333 0.05900796 0.53035825 0.27363834 -0.014501587 0.14619091 0.7445295 0.55971336 0.24760595 -0.55624527 0.23104966 -0.048968103
যদি -0.27901584 0.46297255 0.018181454 0.06980264 0.18800619 -0.68657506 0.28366217 1.0558611 -0.5530478 -0.28775597 -0.3120051 -0.6779991 -0.1360265 0.15362217 0.21804959 -0.33137786 0.07770805 -0.5363363 -0.20448105 -0.8692209 0.072088644 0.10597599 0.11850648 -0.3544348 -0.114347145 0.02557601 -0.262425 -0.44676802 -0.42849153 -0.04891475 0.43083453 0.021405876 0.19909412 -0.29266176 -0.039998088 0.49883983 0.110830195 -0.29497814 -0.213702 -0.91608304 0.07964518 -0.31838176 -0.23440777 0.16743878 0.5021947 -0.22249393 -0.37892815 0.0012009132 0.22557865 0.45126724 0.3545101 -0.40582553 -0.11443678 0.053629734 -0.35295206 0.3651351 0.17381974 0.03202652 -0.57866013 0.19902442 -0.036780912 0.13564886 -0.12897108 0.05894641 -0.7040656 0.63279074 0.07403564 0.43600428 -0.66833824 0.7297781 -0.44269997 0.23316759 0.35442165 -0.17076287 0.4917294 0.29681513 -0.060223557 0.13393882 -0.40350696 0.05164924 -0.12509322 0.00048518664 -0.5482171 0.7608886 0.00047258634 0.06120464 0.153546 0.4203152 0.51225233 0.07541816 0.48127165 0.24469951 -0.011736067 0.14242339 0.6577897 0.50151944 0.23551999 -0.51074797 0.22985135 -0.054977126
মানুষ -0.264693 0.46610984 0.010290226 0.07462255 0.19926746 -0.7193864 0.29480833 1.0963118 -0.5655057 -0.28443694 -0.3150294 -0.69455945 -0.15356092 0.14191537 0.22146149 -0.33342528 0.087049045 -0.5581964 -0.2024258 -0.8885359 0.08360254 0.09227478 0.13246366 -0.37693137 -0.1228491 0.024292063 -0.28035557 -0.4778271 -0.4291592 -0.042594492 0.4592815 0.007864441 0.21621779 -0.29118726 -0.018020747 0.50741655 0.11854818 -0.32274905 -0.21181014 -0.9555446 0.08795993 -0.32890886 -0.23605236 0.17641096 0.53680295 -0.22865978 -0.42103365 0.019838156 0.23129633 0.47400668 0.35664278 -0.4243467 -0.118694775 0.070290655 -0.3649934 0.40181124 0.17700721 0.04296524 -0.58774143 0.21125236 -0.039460473 0.13912742 -0.13914944 0.07442598 -0.7189025 0.67776465 0.07936702 0.4668824 -0.6958348 0.74634075 -0.4890947 0.24509807 0.35545892 -0.19812147 0.51645243 0.31025103 -0.07215224 0.13321507 -0.41647294 0.057212617 -0.1435537 -0.0009883028 -0.55868405 0.8107169 -0.008735519 0.06304487 0.17461275 0.41527593 0.5385392 0.056068882 0.48243755 0.24777664 -0.027536264 0.15398155 0.70212334 0.5132268 0.2339507 -0.5273432 0.21914843 -0.047775656
দেশ -0.27205774 0.45152378 0.011440646 0.07428513 0.1891217 -0.70226145 0.2797841 1.0865338 -0.5568528 -0.29180235 -0.30918208 -0.699284 -0.1460336 0.16021337 0.21823816 -0.31734014 0.07219151 -0.5400375 -0.17885406 -0.8851806 0.07400654 0.091832295 0.12352187 -0.3625583 -0.12064741 0.02017449 -0.27967885 -0.45625663 -0.4149585 -0.047865983 0.4341126 0.024017014 0.21880846 -0.28879482 -0.031880204 0.50220144 0.12086417 -0.31949988 -0.22594821 -0.91903543 0.089842975 -0.30754152 -0.24773172 0.17244367 0.5209645 -0.22840422 -0.3980448 0.01812457 0.22160555 0.4474361 0.36091158 -0.41943985 -0.11047523 0.06657732 -0.34806556 0.38417178 0.1751877 0.031336173 -0.5699085 0.20374782 -0.04724065 0.13328756 -0.12815954 0.079986595 -0.72105867 0.6600408 0.081851475 0.4551209 -0.6653981 0.72413886 -0.45231473 0.22586323 0.3628824 -0.18135513 0.49970177 0.3013479 -0.06556729 0.12464814 -0.40829855 0.065054595 -0.1378876 -0.00039988168 -0.5391652 0.77839327 0.006032077 0.06801531 0.17403793 0.42167535 0.5419236 0.076706104 0.48361218 0.25612548 -0.036756292 0.15440522 0.6991047 0.52400666 0.22647128 -0.5157733 0.2234649 -0.039210826
মত -0.28690663 0.48085776 0.033204183 0.09857662 0.1909553 -0.7252137 0.30026302 1.1163262 -0.5839843 -0.3056785 -0.3324294 -0.7116893 -0.14452434 0.14388417 0.22407435 -0.33452383 0.07656377 -0.5749974 -0.19508773 -0.9009866 0.079472944 0.11381079 0.121755786 -0.3687493 -0.11447102 0.03637004 -0.2969215 -0.47736162 -0.43932074 -0.04278076 0.4467755 0.022955531 0.20239353 -0.29181904 -0.035074506 0.52671677 0.12176626 -0.32257763 -0.21413396 -0.97630566 0.087528996 -0.33059078 -0.2487189 0.17606516 0.5449338 -0.23471342 -0.4103433 -0.0013900471 0.2387549 0.46611428 0.35826352 -0.44465047 -0.13474756 0.051759798 -0.36072284 0.38997978 0.16111355 0.03241694 -0.59543186 0.20756114 -0.036586743 0.15015252 -0.13221419 0.078654364 -0.74306 0.68377393 0.08253969 0.48007718 -0.6863416 0.7603656 -0.4717069 0.2525477 0.3645636 -0.18988508 0.5293462 0.31968793 -0.083822764 0.13410087 -0.41529307 0.06649854 -0.12562568 -0.015020177 -0.56467617 0.81948805 -0.0073838625 0.050201237 0.17716773 0.43096325 0.5481922 0.056071244 0.50242656 0.2687229 -0.02100403 0.16302542 0.72798234 0.5327363 0.23228666 -0.5277487 0.21658166 -0.045567855
বাংলাদেশ -0.25456378 0.46108314 0.014264609 0.07091433 0.18552794 -0.68789095 0.2702694 1.0725406 -0.55028754 -0.2754382 -0.31500795 -0.66471577 -0.13278927 0.1615181 0.22740452 -0.3258226 0.074125595 -0.5370371 -0.18110064 -0.85099363 0.08274259 0.10671454 0.1307195 -0.3420924 -0.118889995 0.017901031 -0.28085434 -0.4415074 -0.421665 -0.035586603 0.4365733 0.0026347986 0.21589199 -0.28698325 -0.032180365 0.5073286 0.12329591 -0.30201197 -0.22743852 -0.892663 0.077787995 -0.2996177 -0.23319428 0.17543778 0.5042338 -0.20909384 -0.38967586 0.017239274 0.21967256 0.4349075 0.35050613 -0.42604145 -0.12129362 0.04965232 -0.34337616 0.37991086 0.16537704 0.0464368 -0.5708416 0.19121101 -0.037843727 0.1269347 -0.13642795 0.07812905 -0.69740385 0.6509484 0.088100456 0.44481814 -0.66583216 0.7333408 -0.4558924 0.23226732 0.3542668 -0.19327052 0.49875638 0.3039932 -0.06629033 0.125581 -0.39622307 0.06767513 -0.1345518 -0.015866086 -0.54423225 0.7684811 -0.0018801526 0.060492277 0.16361788 0.40780288 0.5236797 0.07082895 0.48087856 0.24108347 -0.037141547 0.13853306 0.6603465 0.4944397 0.23884061 -0.49616364 0.2175502 -0.05583147
কেন -0.2861008 0.48610583 0.012841972 0.09856843 0.19900528 -0.7220992 0.2904337 1.119222 -0.5954283 -0.28343993 -0.33801833 -0.7198035 -0.14151983 0.15382212 0.23689567 -0.34219554 0.0814044 -0.581195 -0.19741891 -0.91325724 0.08210131 0.10513143 0.13051471 -0.36880475 -0.13044968 0.02253888 -0.29815137 -0.49004132 -0.447481 -0.044917602 0.46888125 0.018526131 0.20508084 -0.30186874 -0.02815273 0.51498705 0.123116866 -0.32454416 -0.21550144 -0.9739804 0.07912441 -0.32446337 -0.25334176 0.19058003 0.5448915 -0.21738978 -0.40960452 0.010159431 0.24093342 0.47856045 0.36639696 -0.43943813 -0.11907412 0.063542984 -0.34945753 0.39189705 0.1659123 0.05070273 -0.60868514 0.20828526 -0.052775096 0.15093093 -0.15460344 0.081577756 -0.7223043 0.67844033 0.078592815 0.462573 -0.697111 0.7569139 -0.47370136 0.24281265 0.3694773 -0.19639002 0.5080881 0.31150332 -0.07451808 0.13598461 -0.4093198 0.064074256 -0.14710736 -0.0098837335 -0.5713269 0.8051589 -0.01047104 0.058531124 0.17408784 0.43985566 0.5595425 0.07530381 0.5049803 0.25816905 -0.028356418 0.1669043 0.7188356 0.53689754 0.24227838 -0.52666634 0.23741254 -0.04936034
আমরা -0.2917084 0.49348328 0.023619981 0.081969 0.2003718 -0.7428537 0.30220476 1.1489382 -0.61417973 -0.29073462 -0.3498484 -0.7460681 -0.14758223 0.14834444 0.23476543 -0.35273626 0.07493859 -0.5959221 -0.2044186 -0.9354358 0.09150316 0.10436244 0.14254414 -0.39062348 -0.11827096 0.028769713 -0.29783607 -0.5026944 -0.45282012 -0.045521114 0.4594187 0.031821102 0.22576079 -0.30421942 -0.039391596 0.5466869 0.12289136 -0.33041346 -0.23855132 -1.0019089 0.0915434 -0.3457604 -0.24955487 0.19490992 0.5494199 -0.2405572 -0.42838565 -0.0030983014 0.23035233 0.4838198 0.3855027 -0.45493853 -0.13132945 0.06304056 -0.3685538 0.39653793 0.17970464 0.052259233 -0.6290713 0.21280959 -0.037541486 0.14442596 -0.14979441 0.07545817 -0.7444774 0.7091084 0.09259716 0.48244855 -0.72204393 0.77795917 -0.5095385 0.2657893 0.37317035 -0.20366053 0.5413587 0.31503353 -0.069814414 0.13745528 -0.43320417 0.07753646 -0.14386062 -0.014192573 -0.5883332 0.83134305 -0.007218 0.05480992 0.18908292 0.45932442 0.5682559 0.069282964 0.50875026 0.27732453 -0.029214583 0.16741177 0.74747133 0.55570334 0.2483971 -0.5371906 0.24874194 -0.048187524
ভারতে -0.2830609 0.49656475 0.026413267 0.08495399 0.19902855 -0.74514735 0.29559302 1.1414385 -0.60235506 -0.30588648 -0.3384182 -0.7321477 -0.14391784 0.17545296 0.24389449 -0.3413114 0.08110524 -0.5832937 -0.2115133 -0.9411958 0.101647794 0.09686822 0.13930278 -0.3801232 -0.13088894 0.026183717 -0.30827045 -0.48049092 -0.46050963 -0.050278645 0.4704493 0.026987934 0.22722583 -0.30449164 -0.03673767 0.5258852 0.13011047 -0.3207753 -0.23644127 -0.9894539 0.09192161 -0.33001453 -0.26237592 0.17789762 0.55458057 -0.23773675 -0.4151874 0.01990936 0.23262772 0.49070767 0.36840525 -0.45371583 -0.1426381 0.057838656 -0.35306904 0.41232234 0.16199169 0.046415966 -0.6166269 0.19959411 -0.045624435 0.1415865 -0.1488644 0.0924518 -0.7475347 0.69483554 0.08812773 0.48151365 -0.71154875 0.7956299 -0.5055173 0.24847245 0.3745463 -0.19701278 0.5266972 0.34254494 -0.085327834 0.1278377 -0.43706942 0.06542803 -0.12277383 -0.015973562 -0.5816702 0.84342456 -0.010426639 0.06195838 0.18543772 0.42789236 0.5652613 0.06884657 0.5168404 0.25512612 -0.03664214 0.17311402 0.724915 0.55707306 0.24349974 -0.5277675 0.23226535 -0.050614934
কিন্তু -0.28779146 0.49164072 0.019925801 0.085828535 0.19283065 -0.7606729 0.30221787 1.1686388 -0.60159355 -0.3115718 -0.34960517 -0.73572725 -0.16514361 0.16418508 0.24463905 -0.3507662 0.075813204 -0.60121757 -0.22310993 -0.9394157 0.09600071 0.110353835 0.14744306 -0.39305153 -0.13110977 0.03505767 -0.31116185 -0.5094621 -0.4434681 -0.047265682 0.46443242 0.030219873 0.21671294 -0.31567666 -0.033216584 0.5338519 0.12096516 -0.33440834 -0.24111313 -1.0022298 0.08618708 -0.34643778 -0.2538252 0.18891594 0.57999116 -0.23423074 -0.43070647 0.008311778 0.2483589 0.49939632 0.38985452 -0.4608498 -0.13066381 0.058028676 -0.37097615 0.4047453 0.17323121 0.03606402 -0.62342733 0.21769628 -0.041084666 0.149396 -0.14349052 0.0691415 -0.75481147 0.7119612 0.09743474 0.49551752 -0.7292903 0.8004782 -0.49940613 0.24176918 0.37535033 -0.20981593 0.5274661 0.33658808 -0.07089079 0.14289947 -0.42373136 0.06933054 -0.14014028 -0.0039950088 -0.59687644 0.83875185 0.006064119 0.054660197 0.18956555 0.45662653 0.56232613 0.081286654 0.52787334 0.26067582 -0.035601385 0.15074103 0.74906456 0.56091595 0.25201526 -0.5485371 0.23046955 -0.048966765
তাই -0.27168217 0.46825042 0.014662459 0.0862352 0.18363942 -0.7397778 0.30113897 1.1348196 -0.59660786 -0.28730068 -0.32368466 -0.71430874 -0.15688153 0.16903634 0.22472093 -0.34121034 0.0777659 -0.5825784 -0.21337864 -0.9103904 0.099951446 0.095521204 0.124961324 -0.36711046 -0.12454481 0.020491382 -0.28543553 -0.48616654 -0.43332833 -0.03177083 0.46935582 0.029423168 0.2205028 -0.31245568 -0.032230113 0.52146083 0.12956578 -0.31408086 -0.22075987 -0.9815108 0.09926102 -0.33086038 -0.2474123 0.19048148 0.54011714 -0.23506826 -0.41542485 0.017382314 0.2445902 0.47037035 0.3567057 -0.44716078 -0.11465092 0.047955997 -0.35131994 0.3969289 0.16469048 0.05350803 -0.58710104 0.21652691 -0.03137909 0.13481708 -0.1387286 0.0702737 -0.75027436 0.6777428 0.09324167 0.48358533 -0.7115045 0.7681461 -0.48668846 0.24007346 0.36330682 -0.19329166 0.5265477 0.31533355 -0.07978387 0.1399101 -0.42486802 0.074708186 -0.12577614 -0.00044794538 -0.57660955 0.80977255 -0.016681522 0.05411646 0.18086462 0.42765 0.5578514 0.075622216 0.505648 0.26150712 -0.016310291 0.16276215 0.7200353 0.5272086 0.23860079 -0.52359915 0.2400995 -0.044727396
তারা -0.26494864 0.4821995 0.02583207 0.082635574 0.19564502 -0.722416 0.2851813 1.1246176 -0.59623253 -0.30756077 -0.3240668 -0.70163065 -0.14780931 0.16696815 0.23721434 -0.33147454 0.08213567 -0.5649552 -0.21866801 -0.9193011 0.09888794 0.09212328 0.13838014 -0.37260276 -0.120358236 0.019862477 -0.30551398 -0.48791227 -0.42680165 -0.031165628 0.44293478 0.013812668 0.21679008 -0.3158214 -0.023382848 0.52960163 0.11353686 -0.3131696 -0.21253927 -0.97143465 0.090153076 -0.3392862 -0.23799318 0.19516525 0.5545331 -0.24441546 -0.40660247 0.008352304 0.23410432 0.48072144 0.36661652 -0.43027037 -0.13137226 0.07282237 -0.36086825 0.3969355 0.17866094 0.05141875 -0.59378904 0.1997088 -0.040315714 0.15006521 -0.14913063 0.08496307 -0.75346994 0.69148564 0.09399705 0.47990504 -0.68800926 0.77354616 -0.49102595 0.23615958 0.36265856 -0.19797924 0.51346886 0.31297863 -0.08771544 0.15477969 -0.41059807 0.075181924 -0.13880526 -0.011146031 -0.5730188 0.8245874 -0.005572847 0.06770843 0.16973297 0.42491105 0.55483764 0.07321972 0.49159205 0.2465589 -0.025284447 0.14555867 0.72322357 0.53737384 0.2407423 -0.5330486 0.22148548 -0.040219694
তোদের -0.27855015 0.5020932 0.025116535 0.11011543 0.19449423 -0.75003797 0.31910366 1.1645826 -0.62059706 -0.29854387 -0.35577217 -0.7619905 -0.14339465 0.15108442 0.22644942 -0.35899362 0.08947165 -0.5964435 -0.22073238 -0.95194215 0.10583012 0.11692928 0.14626569 -0.37880322 -0.122348525 0.040601853 -0.30044204 -0.4866651 -0.45744193 -0.034877434 0.4692701 0.021562396 0.23347099 -0.31327268 -0.02784932 0.5472125 0.13182203 -0.34488145 -0.22485434 -1.0171353 0.07710733 -0.34889013 -0.24836922 0.19406736 0.5540167 -0.22978888 -0.4439554 0.007578248 0.24102522 0.48082262 0.38900957 -0.47503924 -0.14404145 0.04617248 -0.36315352 0.40283683 0.17235568 0.035312086 -0.63286096 0.21326181 -0.051553484 0.14177522 -0.14879239 0.091828845 -0.78363 0.7192788 0.088454284 0.5015724 -0.735061 0.7981353 -0.51221675 0.24603659 0.37814784 -0.20384137 0.5315955 0.3272075 -0.07005053 0.13571729 -0.43490648 0.07707645 -0.13912913 0.009985701 -0.5947586 0.84011585 -0.017027874 0.050703797 0.17391694 0.44681925 0.5736497 0.065616354 0.5239102 0.26275343 -0.025890978 0.16378726 0.76040447 0.5494604 0.25516 -0.5541434 0.23406789 -0.04931859
ভাই -0.29520988 0.4930983 0.035720766 0.109485075 0.2144631 -0.7716445 0.3135504 1.172706 -0.60197103 -0.31821555 -0.34916833 -0.7605001 -0.16197218 0.16640669 0.25013095 -0.34445632 0.06932451 -0.59394526 -0.21832438 -0.933621 0.078216575 0.1146877 0.12556931 -0.39313897 -0.12553595 0.03692803 -0.3105792 -0.49826142 -0.45907137 -0.040420648 0.4802348 0.03186372 0.23551832 -0.29694837 -0.03890244 0.5527094 0.1438009 -0.32895944 -0.22367637 -1.0128331 0.092659086 -0.34796208 -0.25183493 0.17993812 0.5680229 -0.2316307 -0.4496178 0.020635739 0.25250953 0.48915684 0.37613806 -0.4592537 -0.12018063 0.06505913 -0.3840021 0.41800508 0.16652669 0.03335446 -0.61837745 0.22421454 -0.039843053 0.16365997 -0.15701011 0.08310481 -0.77012074 0.7061726 0.091145866 0.48988178 -0.74339795 0.79855955 -0.49861684 0.25464162 0.37480417 -0.2056101 0.5448613 0.33090746 -0.06757693 0.14742258 -0.42210016 0.06522551 -0.13404074 -0.0040839165 -0.5902446 0.8578686 -0.017868102 0.076905005 0.18681532 0.45320693 0.5773607 0.05254286 0.5203005 0.27886742 -0.01566297 0.17266788 0.7386519 0.56547254 0.23876326 -0.56107426 0.25298727 -0.043429825
হিন্দু -0.28047463 0.44863203 0.0257849 0.083836906 0.17181158 -0.68869203 0.29017502 1.0797691 -0.5517776 -0.28162453 -0.32318345 -0.6880402 -0.13823067 0.13829535 0.21567573 -0.32706225 0.0779812 -0.5487563 -0.19734173 -0.8692558 0.09124335 0.094429076 0.11756505 -0.3453779 -0.12141671 0.019732825 -0.26775262 -0.47364116 -0.43078452 -0.040903863 0.42391 0.028757498 0.22065216 -0.28632984 -0.021565815 0.50225234 0.121835 -0.31194818 -0.21349397 -0.91711056 0.09182584 -0.3112267 -0.24364182 0.16108224 0.5232062 -0.22286323 -0.38733703 0.017917821 0.24412057 0.44014412 0.3640671 -0.4359476 -0.115758955 0.06486098 -0.35949188 0.38552466 0.15236151 0.02830785 -0.5708841 0.20068559 -0.046794415 0.15269536 -0.1433265 0.0816979 -0.7030731 0.66513795 0.07228593 0.46016195 -0.68360895 0.7339555 -0.4618115 0.24651189 0.3565592 -0.19412248 0.5137863 0.31228483 -0.063554816 0.124695934 -0.410083 0.068294436 -0.13547115 -0.009953161 -0.5454066 0.7831613 -0.020889478 0.047286045 0.16232513 0.41134247 0.53709364 0.065557756 0.49245223 0.2429356 -0.01705963 0.16106798 0.69988066 0.51883954 0.23072277 -0.5087784 0.20970108 -0.029153857
বাচ্চা -0.289566 0.5056886 0.053249888 0.109365046 0.19438292 -0.77664024 0.2988981 1.1416258 -0.6118631 -0.30114764 -0.35003456 -0.76067924 -0.15348552 0.16382399 0.24269275 -0.35358432 0.054162815 -0.5852763 -0.18520018 -0.918646 0.09760615 0.08958264 0.14538148 -0.38545176 -0.1410063 0.06392013 -0.29586968 -0.49991173 -0.44725448 -0.0017706937 0.46986508 0.048871063 0.22688292 -0.2704717 -0.026436722 0.52558637 0.12563303 -0.3211278 -0.22614825 -1.0078555 0.10060715 -0.3226779 -0.22867979 0.16509575 0.53485054 -0.23902445 -0.4251315 -0.0001459252 0.27083415 0.45922428 0.36625108 -0.4641826 -0.103505395 0.036319982 -0.36493555 0.36450997 0.14940043 0.040905327 -0.62656295 0.2338586 -0.034756515 0.15631431 -0.1176913 0.1125964 -0.74725544 0.71659964 0.090426505 0.462822 -0.73438865 0.7759798 -0.50274986 0.24840854 0.3716611 -0.20989336 0.5395144 0.3373935 -0.092914715 0.14988562 -0.3843307 0.05584015 -0.13523838 0.019232238 -0.59247303 0.8096032 -0.024249261 0.04111322 0.2087419 0.47242087 0.6024293 0.053408477 0.5213014 0.27393407 -0.040663794 0.12834486 0.7582319 0.5353637 0.23756056 -0.58574855 0.23772757 -0.04194415
ভালো -0.26019856 0.47921672 0.018669445 0.08195778 0.19841376 -0.72965854 0.300732 1.1170547 -0.57596296 -0.30295432 -0.34008247 -0.7086923 -0.14948605 0.14728539 0.23686734 -0.32314542 0.0678407 -0.561985 -0.1937101 -0.89603907 0.099072546 0.098721944 0.119615965 -0.3684906 -0.13837065 0.046253502 -0.2965925 -0.4739915 -0.432826 -0.029402677 0.4607527 0.0076277293 0.20379305 -0.29568678 -0.028460372 0.52227056 0.124621294 -0.31528744 -0.22825862 -0.94635296 0.07911446 -0.3196302 -0.24683504 0.17252997 0.54670566 -0.22295761 -0.42713884 -0.0006633503 0.23560771 0.4610612 0.3631693 -0.4312876 -0.115621366 0.04509896 -0.34352604 0.3782397 0.17348714 0.04133847 -0.595305 0.2121886 -0.04930031 0.13942702 -0.14535779 0.06956206 -0.7270124 0.66871744 0.09605499 0.4539435 -0.69945854 0.7433968 -0.488363 0.23668315 0.34537417 -0.20287259 0.5124644 0.31074673 -0.06988168 0.15125093 -0.423902 0.07505881 -0.14402544 0.00016143407 -0.5472376 0.8132735 -0.011163849 0.06915194 0.16439283 0.42730147 0.5430268 0.05306542 0.50267094 0.2629082 -0.031125888 0.14176099 0.71368897 0.51750684 0.22417408 -0.5375476 0.22529173 -0.030438032
নেই -0.27897972 0.48390976 0.027622538 0.081138425 0.1871366 -0.69768804 0.29204556 1.0903679 -0.5714675 -0.3006727 -0.31523085 -0.7091345 -0.15464172 0.14902033 0.2287761 -0.3312412 0.08418034 -0.55710626 -0.18960442 -0.87511814 0.08637015 0.088559404 0.115336835 -0.34579852 -0.112716265 0.021255707 -0.27369696 -0.45461348 -0.42170364 -0.051754832 0.43866783 0.011377498 0.1991994 -0.2914023 -0.016921679 0.49906597 0.13250019 -0.31736445 -0.20956688 -0.9490729 0.08186243 -0.3315909 -0.22968721 0.18965377 0.5245305 -0.23437098 -0.41622722 0.017110864 0.23388734 0.464589 0.34934583 -0.44128317 -0.11660695 0.05795608 -0.3437114 0.3994044 0.16111307 0.045187604 -0.59114474 0.19647154 -0.04847017 0.13569786 -0.14682698 0.075532876 -0.7231291 0.67463875 0.08982787 0.47150564 -0.6705072 0.732981 -0.48039097 0.25097778 0.36177433 -0.20038973 0.51663226 0.326295 -0.061200183 0.12733327 -0.41093805 0.067625634 -0.1261769 -0.010012128 -0.54986554 0.79824054 0.011019433 0.060686473 0.15641537 0.4114056 0.534169 0.07069221 0.4905715 0.24688722 -0.03724413 0.14957692 0.7019301 0.526092 0.24320616 -0.51967376 0.23407263 -0.041326545
দেশের -0.27331823 0.48667288 0.011236956 0.09021729 0.20750499 -0.7119545 0.2986203 1.1179161 -0.5821518 -0.30644137 -0.32196945 -0.7059158 -0.15793587 0.15812822 0.2357161 -0.3464526 0.086723536 -0.55651337 -0.21315001 -0.8998225 0.07426524 0.09145758 0.13703732 -0.3785187 -0.12681456 0.01945698 -0.30059776 -0.4857478 -0.4329625 -0.036546774 0.4393632 0.0019403627 0.21147531 -0.3056397 -0.03540929 0.51275975 0.13351078 -0.31454515 -0.20928875 -0.9483272 0.086299114 -0.3279064 -0.23260342 0.18417574 0.5463995 -0.22863665 -0.4241821 0.014216858 0.23946476 0.4666275 0.3707626 -0.4431964 -0.119605556 0.05411169 -0.36849186 0.3968651 0.17981288 0.053228997 -0.6084874 0.20881294 -0.036579657 0.14261813 -0.14322019 0.08513 -0.72071385 0.6638264 0.08180931 0.4822597 -0.68739325 0.74868286 -0.48851585 0.24857762 0.3764002 -0.20093507 0.5163374 0.31385025 -0.08035339 0.13674788 -0.41823903 0.058236975 -0.13029453 -0.02819123 -0.5601284 0.8181643 0.00207652 0.074071504 0.17982443 0.42036316 0.5544877 0.07766996 0.51382864 0.2664261 -0.023533434 0.16155837 0.7167199 0.52365977 0.233658 -0.5193204 0.23020937 -0.048283644
এটা -0.25980127 0.44112125 0.02732319 0.08145278 0.1844677 -0.6700749 0.28695658 1.0435678 -0.55432606 -0.28391436 -0.3146662 -0.67804706 -0.14167435 0.1345774 0.22610064 -0.31680974 0.066786304 -0.5441293 -0.19775178 -0.86128736 0.08380249 0.10267755 0.1172945 -0.33600515 -0.11813383 0.019828213 -0.27809545 -0.45286164 -0.42006886 -0.04702738 0.41972333 0.012584426 0.20656353 -0.29204792 -0.036063045 0.4918264 0.11656824 -0.29582348 -0.2106114 -0.89606565 0.08889538 -0.32051715 -0.2268474 0.17925821 0.5121046 -0.20648688 -0.39613098 0.0042268215 0.21201394 0.45354062 0.3312798 -0.41358244 -0.114205144 0.05071443 -0.32443276 0.36374074 0.15076752 0.050945446 -0.57150704 0.2073412 -0.04684124 0.13935179 -0.13387637 0.06649233 -0.69926584 0.6325958 0.08922455 0.45031363 -0.65404606 0.7237024 -0.4469106 0.23390016 0.3438856 -0.20072244 0.49351847 0.28579673 -0.07288499 0.13466734 -0.38305762 0.05471849 -0.126639 0.00068889017 -0.5379092 0.7704926 -0.006697282 0.067240156 0.15289326 0.41632 0.527298 0.053395763 0.46914044 0.23287013 -0.013798996 0.15540168 0.6616832 0.4980788 0.22599909 -0.5056324 0.21903819 -0.048913885
এক -0.2765569 0.47345182 0.03531836 0.096377365 0.18908481 -0.73034793 0.28409162 1.1256553 -0.58045477 -0.28721264 -0.3302957 -0.7263484 -0.14583439 0.16720803 0.2374423 -0.33030313 0.06463096 -0.5777777 -0.19480537 -0.91423446 0.087374546 0.113920525 0.123247884 -0.35889542 -0.1289777 0.043733217 -0.2818201 -0.4714586 -0.45063868 -0.028842688 0.46450064 0.018705145 0.21965478 -0.28872415 -0.035174124 0.53171146 0.1263378 -0.32586044 -0.22273692 -0.96852577 0.0861871 -0.34040785 -0.24260269 0.1930291 0.5454649 -0.21456519 -0.4244969 0.017112724 0.22945651 0.45946807 0.38011733 -0.43861952 -0.12689593 0.051877253 -0.3586844 0.39728576 0.17760557 0.03144734 -0.6022522 0.2031782 -0.045517303 0.1438853 -0.14739205 0.08111366 -0.7389638 0.69332296 0.083095476 0.47954133 -0.69797325 0.7677869 -0.49490148 0.23073171 0.35980663 -0.20077312 0.5345011 0.33150455 -0.08524898 0.14962912 -0.4126917 0.056432415 -0.12453749 -0.005073431 -0.5786616 0.8196375 0.007657166 0.07508088 0.17518695 0.4415666 0.5596144 0.056019597 0.5106374 0.25594535 -0.03852253 0.1627715 0.7101218 0.53489715 0.23728287 -0.52332354 0.22366033 -0.037292883
করছে -0.26204148 0.47740564 0.02126568 0.08385836 0.17737217 -0.7072471 0.2981287 1.101323 -0.56861955 -0.28451225 -0.34035432 -0.7056162 -0.15435106 0.14955793 0.22983164 -0.3432667 0.07571675 -0.57496476 -0.20679224 -0.9047704 0.10378515 0.108429596 0.12735723 -0.36646155 -0.10965979 0.034353286 -0.30023333 -0.47992352 -0.43057713 -0.023245 0.4537466 0.03291207 0.22296575 -0.29298127 -0.018536633 0.52763474 0.13709016 -0.3081725 -0.23031369 -0.94574594 0.07332199 -0.3378886 -0.24906994 0.18055785 0.5328582 -0.24011081 -0.4049316 0.019238297 0.23948945 0.47367433 0.35486868 -0.44279426 -0.11711703 0.05858401 -0.3668617 0.39617077 0.1592342 0.03546977 -0.58827716 0.21606523 -0.03875763 0.14223513 -0.13127711 0.0857657 -0.72007906 0.6694477 0.09108132 0.47457743 -0.700413 0.762504 -0.4769629 0.2482153 0.3547765 -0.2030863 0.5040484 0.31273997 -0.07741156 0.13185035 -0.40715697 0.077965975 -0.125942 -0.018909147 -0.5678657 0.79854697 -0.0007829682 0.046478882 0.17550392 0.4291634 0.5452827 0.07354666 0.50646 0.25275818 -0.017567236 0.14161825 0.6952915 0.522468 0.25226957 -0.5239721 0.23641692 -0.04666822
পারে -0.23908603 0.4271985 0.0131637575 0.068229266 0.17733574 -0.66191787 0.26745185 0.99693835 -0.52733266 -0.2646609 -0.3075764 -0.6395511 -0.13411245 0.14049372 0.20630778 -0.30111727 0.049591087 -0.5120126 -0.18251155 -0.82780343 0.08023447 0.1103671 0.13036183 -0.33405885 -0.12910044 0.027524281 -0.26332504 -0.42776558 -0.36604118 -0.04551805 0.41966113 0.018539336 0.19578469 -0.25397053 -0.03942733 0.4493742 0.11903285 -0.2617657 -0.19424044 -0.8643083 0.08696709 -0.285816 -0.21897636 0.19774579 0.49117568 -0.19436239 -0.36265546 -0.0019538146 0.20195822 0.42688015 0.31158563 -0.3772484 -0.08584331 0.03984645 -0.3341844 0.34340587 0.15196595 0.03722399 -0.5390086 0.18191516 -0.032670308 0.14545284 -0.13622998 0.04986357 -0.6463462 0.59334666 0.098957255 0.43063104 -0.63658166 0.66231614 -0.4509635 0.22215196 0.33374974 -0.1722426 0.45807928 0.28833583 -0.06193027 0.12709382 -0.3920984 0.058684174 -0.12217106 -0.012687337 -0.50378466 0.7226239 0.011079247 0.04627866 0.16428614 0.36901483 0.46759436 0.048257746 0.442258 0.22435133 -0.021037426 0.14363459 0.6537403 0.4696644 0.2323091 -0.46692485 0.19975299 -0.030980116
বাংলাদেশে -0.2668846 0.4740413 0.011708013 0.072366394 0.18166272 -0.698265 0.28009433 1.0784131 -0.5684024 -0.29120252 -0.30815908 -0.6911267 -0.14413367 0.15294205 0.22101012 -0.3373922 0.07339611 -0.5536839 -0.18171449 -0.8868877 0.08372047 0.09903364 0.12737437 -0.36158863 -0.1264393 0.01927013 -0.2751894 -0.4693591 -0.42330235 -0.03578334 0.44189367 0.0076254047 0.21484755 -0.2904021 -0.033778705 0.49450257 0.11284224 -0.30343732 -0.21117908 -0.9260891 0.093206935 -0.3234066 -0.2414517 0.17221615 0.51929754 -0.22119841 -0.39479536 0.0011795524 0.23163904 0.45710093 0.34477523 -0.41917464 -0.12815537 0.06736172 -0.34243834 0.38755375 0.16141689 0.031948205 -0.5666469 0.19540407 -0.036382757 0.1399295 -0.14651614 0.07331836 -0.7051992 0.65358686 0.09793127 0.44365254 -0.68113565 0.7437421 -0.47202477 0.22857614 0.3522972 -0.18468595 0.49371463 0.30796358 -0.08369901 0.138049 -0.405048 0.07406081 -0.1312675 -0.0074394713 -0.548543 0.7930808 -0.0039439984 0.04606814 0.159693 0.41449344 0.54479533 0.07328492 0.4762493 0.23971002 -0.037954103 0.1530184 0.6780123 0.51605904 0.2395275 -0.51252335 0.21120873 -0.035373572
এ -0.27975678 0.47451472 0.019281223 0.09854861 0.19925442 -0.74147683 0.2930189 1.1406617 -0.6023418 -0.3076934 -0.34124112 -0.7380776 -0.14927943 0.1608393 0.23941168 -0.3410556 0.07717004 -0.574191 -0.20990811 -0.9081953 0.0918825 0.10427724 0.119434714 -0.3688803 -0.11583996 0.038801488 -0.3019583 -0.48556066 -0.4493081 -0.027299386 0.4537475 0.024594722 0.21258731 -0.30801988 -0.03852144 0.5344392 0.11898241 -0.33217618 -0.2338029 -0.9765066 0.08151109 -0.33355135 -0.23916908 0.18159068 0.53888255 -0.23077309 -0.41864797 0.0054023075 0.23292217 0.48079452 0.3777926 -0.4555385 -0.115618736 0.046720438 -0.37386352 0.38848016 0.1692056 0.042217705 -0.60401595 0.22066388 -0.038129054 0.14438544 -0.1514206 0.07331134 -0.7432791 0.7022478 0.080985636 0.4816682 -0.7066336 0.76606977 -0.4941612 0.24116902 0.3562712 -0.21283267 0.5282608 0.31041226 -0.07836116 0.14849965 -0.418229 0.062093556 -0.14201002 -0.0021440487 -0.5688077 0.8159555 -0.0052516847 0.065771684 0.17400354 0.4388303 0.5683346 0.05536802 0.5167169 0.2490547 -0.027290817 0.16088782 0.7207757 0.5480131 0.25025502 -0.55308825 0.23696811 -0.04660357
মালাউন -0.25319877 0.41384766 0.03993317 0.09798775 0.15964727 -0.6390406 0.24871852 0.96858346 -0.50292146 -0.26579943 -0.28412056 -0.6423151 -0.13209058 0.14249331 0.19066347 -0.29108825 0.061576407 -0.5076726 -0.17722657 -0.7835227 0.06944619 0.08078502 0.111812055 -0.3079575 -0.10696849 0.042465486 -0.25786886 -0.40491238 -0.38591373 -0.029734433 0.3873841 0.027964322 0.18510674 -0.23670413 -0.023436842 0.45933452 0.12131745 -0.29550785 -0.19915836 -0.85084164 0.067522734 -0.28442028 -0.2078337 0.14707899 0.46289417 -0.20905964 -0.37012216 0.010826124 0.22210348 0.41041708 0.31605786 -0.38047287 -0.10769687 0.04319747 -0.3179131 0.32984322 0.13749163 0.023397338 -0.5363963 0.1748376 -0.031010393 0.12854987 -0.112131916 0.08975989 -0.6441585 0.5921996 0.08520955 0.4098888 -0.6043678 0.6760173 -0.41006565 0.20876916 0.3118183 -0.16429895 0.46084636 0.29641816 -0.0810623 0.118820824 -0.34032083 0.060122095 -0.12098086 0.008640484 -0.48552325 0.69226676 -0.011668507 0.03751649 0.1693575 0.38476303 0.49205983 0.06015109 0.4490978 0.2384852 -0.014573699 0.13513161 0.633318 0.47619113 0.20386721 -0.4716796 0.18526222 -0.029984433
এবং -0.33445898 0.56748456 0.021896156 0.1015572 0.22163293 -0.8345164 0.32864457 1.3009089 -0.6860984 -0.35323325 -0.37996468 -0.82963926 -0.16512635 0.17452396 0.26628757 -0.3946254 0.10230928 -0.6744335 -0.22599947 -1.065447 0.09582396 0.12397018 0.14805812 -0.4314763 -0.14812246 0.04217563 -0.35030407 -0.5511115 -0.50273275 -0.04646398 0.5239042 0.03450557 0.23675317 -0.35640517 -0.032481633 0.618693 0.13869703 -0.38062242 -0.26276767 -1.127 0.10600741 -0.37040585 -0.29756513 0.19922388 0.64341 -0.27129334 -0.48654202 0.010178037 0.26645914 0.53585947 0.41562915 -0.5115284 -0.14736664 0.083643064 -0.41437048 0.4585179 0.18874277 0.053669773 -0.7023448 0.2499796 -0.049324293 0.1653409 -0.15929653 0.0831157 -0.8610476 0.78541404 0.10973431 0.5485917 -0.80516696 0.8894783 -0.5681998 0.29371807 0.41031346 -0.23568255 0.5956415 0.38370448 -0.08865788 0.15923096 -0.4745559 0.06740433 -0.15695898 -0.010815702 -0.66165864 0.9531008 -0.00032806257 0.06432763 0.20420419 0.50619996 0.64610285 0.08976397 0.56918937 0.29705495 -0.023812568 0.18202578 0.82511795 0.6109853 0.28690618 -0.6125558 0.282477 -0.045108587
হলে -0.27582568 0.48065093 0.008572609 0.09455782 0.19666502 -0.7461697 0.30874413 1.1342038 -0.61008835 -0.29099125 -0.32971224 -0.7341934 -0.15614146 0.16027173 0.23669241 -0.329305 0.076735415 -0.58639234 -0.2123981 -0.9347981 0.06956522 0.1166251 0.12302037 -0.38423312 -0.13925704 0.043139383 -0.2903015 -0.489491 -0.439844 -0.04260325 0.48570237 0.012486518 0.22576977 -0.3129019 -0.02235844 0.54968953 0.13094342 -0.3314575 -0.23215489 -0.9967257 0.106121786 -0.3490623 -0.26526618 0.1959928 0.5470235 -0.22785833 -0.43365684 0.023942681 0.24748063 0.46540898 0.37742236 -0.4576952 -0.11798675 0.07361697 -0.38580889 0.4201116 0.18397908 0.050635368 -0.6252852 0.20473133 -0.060020186 0.15276118 -0.15473428 0.090247266 -0.7479769 0.7148637 0.099744745 0.47911435 -0.7172889 0.7860809 -0.5129193 0.24312456 0.37174055 -0.19453314 0.52580816 0.3170183 -0.07479095 0.15491895 -0.417949 0.07275357 -0.15026614 -0.016263159 -0.58333373 0.8257822 -0.01796488 0.053618968 0.17581537 0.44453457 0.56976056 0.086963736 0.4994791 0.2796452 -0.028380511 0.15887082 0.7257039 0.5385367 0.24998187 -0.5590383 0.24771398 -0.030865429
তাহলে -0.2886733 0.49251664 0.034400817 0.08018466 0.19541417 -0.7394192 0.30557227 1.1370324 -0.61495507 -0.28906146 -0.34122282 -0.74229306 -0.15128858 0.15041694 0.2441826 -0.35561785 0.073967524 -0.57960635 -0.21395771 -0.93107903 0.08690579 0.11363126 0.12716283 -0.37741745 -0.14277945 0.029340273 -0.29107672 -0.48079515 -0.45899826 -0.04367175 0.46976054 0.0046147723 0.21320054 -0.3072925 -0.049891982 0.5322542 0.13309523 -0.31975356 -0.22056301 -0.98127145 0.09051455 -0.34756562 -0.25322464 0.19883075 0.5549761 -0.23288706 -0.4109144 0.01104465 0.23248407 0.48872867 0.38842282 -0.4567791 -0.10436129 0.04701902 -0.37287828 0.40573674 0.16878411 0.027897473 -0.61867565 0.19557339 -0.05270609 0.1569481 -0.14036766 0.06280621 -0.73453796 0.6989947 0.09929369 0.49591497 -0.7238139 0.7736022 -0.49204057 0.2551737 0.38296503 -0.20859541 0.53300154 0.3449454 -0.08904876 0.15530798 -0.42174098 0.057825066 -0.1471676 -0.022199363 -0.5828748 0.83438396 -0.004676384 0.07853148 0.16896959 0.42837328 0.5658466 0.08241195 0.5113084 0.27028832 -0.017616622 0.15275654 0.7393257 0.5314978 0.24829191 -0.54798716 0.24409354 -0.051176764
সে -0.26165038 0.45300925 0.022253178 0.07781434 0.17657755 -0.6973201 0.2810813 1.0666618 -0.55588 -0.28424665 -0.3205674 -0.6724072 -0.14306146 0.14123738 0.21560548 -0.31069747 0.0783225 -0.5481536 -0.20911011 -0.873477 0.08215465 0.10910524 0.11594462 -0.34964794 -0.115946226 0.034510057 -0.28938824 -0.44842884 -0.41867334 -0.031938896 0.42256814 0.025479743 0.19006568 -0.29204205 -0.03253881 0.49227083 0.11991036 -0.30749178 -0.20343062 -0.9288608 0.07487315 -0.32507205 -0.22413497 0.1803727 0.5296611 -0.21235082 -0.40235388 0.021383418 0.21980774 0.45561877 0.34281105 -0.41872042 -0.1136515 0.053081017 -0.34679833 0.37349668 0.15948741 0.048498984 -0.577475 0.20164788 -0.047989093 0.12788792 -0.14194852 0.07975642 -0.6947364 0.6630242 0.095803216 0.45541775 -0.67249495 0.7244939 -0.4529217 0.24198353 0.35395092 -0.18291113 0.49444273 0.3051945 -0.08036553 0.14360523 -0.38766494 0.056513898 -0.12526178 0.0037692043 -0.5310936 0.78365624 0.007276886 0.055087008 0.17768164 0.41741085 0.52325124 0.06453395 0.48847663 0.25261456 -0.03176539 0.1449688 0.6784853 0.5094791 0.23486285 -0.5177537 0.22286645 -0.024572924
পাকিস্তান -0.24659401 0.4346781 0.019655053 0.08636322 0.17853487 -0.6457326 0.2615625 1.015896 -0.5373165 -0.25797907 -0.30020368 -0.6319036 -0.14801161 0.14192566 0.21594068 -0.30820304 0.07189831 -0.50309753 -0.17008704 -0.8204773 0.066552155 0.1052095 0.105306864 -0.32803753 -0.104534216 0.019167129 -0.26778528 -0.43781552 -0.39474657 -0.028147703 0.4006085 0.0060206563 0.21184945 -0.28020373 -0.02613683 0.48384118 0.11405258 -0.29524148 -0.19614218 -0.8625403 0.09126047 -0.304257 -0.22061409 0.16927728 0.48668876 -0.20367254 -0.3789014 0.018355964 0.21269237 0.41395155 0.3372918 -0.38260219 -0.115558654 0.059499692 -0.32653904 0.35581565 0.1592477 0.04694587 -0.5310345 0.18282522 -0.04469465 0.13865352 -0.13011369 0.050776243 -0.6616218 0.60825473 0.077322185 0.42745137 -0.6316034 0.68176585 -0.42038897 0.2254315 0.3364423 -0.17551896 0.47983664 0.28241268 -0.059822075 0.12545675 -0.38365087 0.046737034 -0.124142475 -6.562289e-05 -0.5092176 0.7165508 -0.0018991085 0.051164057 0.14535208 0.39985543 0.505983 0.06625191 0.44901395 0.23234496 -0.036895856 0.13892023 0.64804715 0.48240235 0.22591963 -0.48170522 0.21471009 -0.049521726
রাজাকার -0.27695528 0.49132437 0.028312128 0.09264916 0.2015557 -0.7404226 0.29877946 1.1556901 -0.5947666 -0.29745927 -0.3465443 -0.74065113 -0.16368388 0.15652525 0.2396828 -0.33266607 0.07895701 -0.58654 -0.19866778 -0.93427336 0.08646214 0.117446624 0.14400496 -0.37073773 -0.13275656 0.03564798 -0.28590342 -0.4789932 -0.4465929 -0.029508106 0.47445476 0.013801807 0.2299026 -0.30357864 -0.041994553 0.5397454 0.14053282 -0.3424565 -0.21457843 -0.9961125 0.082237504 -0.32980275 -0.25591066 0.1894838 0.5620347 -0.22495817 -0.41913617 0.0055007045 0.25224578 0.46731645 0.37565303 -0.43397972 -0.12921487 0.066572644 -0.3774787 0.39410663 0.18034256 0.044508174 -0.60309654 0.21308906 -0.046180233 0.15304737 -0.15929504 0.0886968 -0.7588187 0.7028981 0.081217326 0.4790578 -0.7093581 0.77438873 -0.5010744 0.2426257 0.35652214 -0.19360103 0.5241622 0.3259725 -0.08889604 0.13867207 -0.43088263 0.07178869 -0.13012497 -0.002602952 -0.5642278 0.8340473 0.0074713305 0.07203396 0.18291193 0.4467467 0.5604317 0.06583234 0.5121983 0.25791 -0.024961898 0.14800975 0.74458426 0.5386641 0.24629582 -0.5554909 0.2440727 -0.04511156
ধর্ম -0.2552369 0.4341651 0.017685099 0.07270756 0.17602083 -0.62797695 0.276197 0.995234 -0.505158 -0.28004152 -0.27938133 -0.6250767 -0.13843893 0.13638723 0.19427711 -0.31105217 0.092863776 -0.5000384 -0.17364617 -0.8092418 0.091427974 0.08423408 0.0964994 -0.31373698 -0.09435354 0.016152507 -0.25020635 -0.42452183 -0.4087293 -0.04713303 0.3853343 0.03027253 0.19093682 -0.27320573 -0.018868828 0.46519387 0.13385646 -0.2936193 -0.19308811 -0.8536553 0.06688226 -0.29292277 -0.2061155 0.16006881 0.49587676 -0.20276266 -0.36533576 0.026898433 0.22642317 0.42027026 0.31869844 -0.381124 -0.11608958 0.052548684 -0.3115426 0.33816475 0.15493342 0.029588703 -0.5232727 0.17250024 -0.040836338 0.13746312 -0.12044693 0.06013113 -0.665913 0.61927515 0.07801366 0.43118533 -0.6317426 0.6699024 -0.44157434 0.22435763 0.31256592 -0.1744462 0.47182754 0.29234916 -0.07364229 0.12084595 -0.382191 0.061005443 -0.11434915 0.006870461 -0.50530744 0.72751683 0.0036088328 0.062707715 0.16247426 0.3689847 0.49686193 0.07452689 0.45246464 0.22690992 -0.026106466 0.15839964 0.6418293 0.4933078 0.2000739 -0.47783902 0.21313071 -0.048144214
আবার -0.27463552 0.4796016 0.027904961 0.08568225 0.19624989 -0.7409718 0.29453605 1.1107123 -0.5882434 -0.2901957 -0.33160362 -0.70980424 -0.14726502 0.14539383 0.2399131 -0.3381176 0.0714857 -0.5609948 -0.20497082 -0.9043209 0.09079866 0.10505743 0.13726184 -0.35666987 -0.12707725 0.03301994 -0.28331658 -0.48817408 -0.42137653 -0.03293562 0.4633281 0.025779271 0.20698704 -0.29201213 -0.037761852 0.5277196 0.13387802 -0.31560907 -0.22347674 -0.9745801 0.09445359 -0.3258747 -0.24715872 0.1749376 0.53636587 -0.22470547 -0.4288021 0.010005569 0.2411657 0.46054396 0.36345217 -0.44347677 -0.12333592 0.05643505 -0.37053424 0.3844282 0.1555439 0.034464605 -0.5979276 0.20718232 -0.030793687 0.15444319 -0.14822122 0.07044112 -0.7266118 0.6897601 0.10025551 0.46538466 -0.7073661 0.75539124 -0.48885137 0.24721375 0.35581386 -0.19178595 0.5090041 0.3286143 -0.08401427 0.15329105 -0.41992587 0.06290877 -0.1269294 -0.015309574 -0.57569486 0.8105084 -0.012913097 0.06665253 0.17877305 0.427892 0.557198 0.062640436 0.51180756 0.26241657 -0.031108234 0.1514548 0.7272835 0.5208531 0.25415885 -0.5418093 0.22429979 -0.03900987
ভারতীয় -0.26583278 0.45438993 0.02867575 0.0801389 0.19616671 -0.70533615 0.27560833 1.0844576 -0.5539363 -0.28290766 -0.32252523 -0.68769336 -0.15342066 0.14834101 0.21801148 -0.32552493 0.06845297 -0.5603984 -0.20391786 -0.87190413 0.08618944 0.112103954 0.12811697 -0.34905583 -0.1173776 0.03501992 -0.28519627 -0.45759404 -0.42225996 -0.028463803 0.4308103 0.019816795 0.21260504 -0.2911484 -0.044225547 0.51127124 0.12244761 -0.31162885 -0.22117417 -0.9176702 0.087669164 -0.3144652 -0.2434109 0.17343636 0.5320467 -0.23365043 -0.39849055 0.0056124707 0.24119255 0.45786944 0.34585583 -0.42950433 -0.12863325 0.067752734 -0.33850256 0.38517013 0.17477016 0.034483265 -0.5723602 0.19153859 -0.058705427 0.13355719 -0.14044534 0.06890048 -0.71458083 0.65731686 0.08392278 0.43951783 -0.6668367 0.7412757 -0.48176956 0.23236711 0.3422454 -0.18485136 0.49741316 0.32240096 -0.06774437 0.12602954 -0.4116771 0.056821734 -0.11633648 -0.011130398 -0.543116 0.78714836 -0.011279415 0.06382644 0.1549704 0.42450044 0.5254488 0.07827575 0.47820687 0.24702801 -0.027630394 0.14879487 0.6918362 0.5124941 0.23622128 -0.5050245 0.21789934 -0.04750003
করার -0.27164978 0.46333697 0.019090096 0.07960468 0.18769367 -0.686717 0.28826934 1.0656408 -0.5406747 -0.28596914 -0.3080025 -0.65824026 -0.12653556 0.14993964 0.21647613 -0.3240316 0.07637378 -0.53619593 -0.18205069 -0.8618748 0.09431281 0.08645173 0.11827181 -0.35878882 -0.102730386 0.0327618 -0.27879015 -0.43350178 -0.40502787 -0.0490726 0.41667664 0.009234812 0.19031677 -0.27264005 -0.018204067 0.4987874 0.119619004 -0.30897754 -0.20101705 -0.9131786 0.08139735 -0.320816 -0.23114978 0.15429051 0.5171305 -0.22466455 -0.37979385 -0.0064661275 0.21277195 0.4424568 0.32961005 -0.40742773 -0.13352494 0.059739124 -0.32573298 0.37934777 0.15876405 0.05631439 -0.56351215 0.20288968 -0.03350564 0.1174025 -0.1281021 0.060893502 -0.6967566 0.65476507 0.088029474 0.43497914 -0.6466693 0.7318112 -0.4450614 0.22168384 0.34822872 -0.16994168 0.48280376 0.30052686 -0.07361695 0.11845893 -0.39758146 0.07926724 -0.12423606 -0.02085749 -0.53621465 0.75116473 0.003872634 0.06272975 0.16119948 0.39732522 0.5312585 0.04926936 0.46438387 0.2243404 -0.01646571 0.14028476 0.6551165 0.48777115 0.24583352 -0.5026134 0.21523736 -0.031425245
যায় -0.2691449 0.46029726 0.033517025 0.06980251 0.17741795 -0.6770701 0.26205215 1.0549843 -0.54361606 -0.26392338 -0.3234063 -0.67011887 -0.14783446 0.15290837 0.23437282 -0.3137755 0.05693595 -0.5283105 -0.18425024 -0.8469869 0.07761152 0.09800121 0.11738537 -0.32805458 -0.13267186 0.024892876 -0.27034855 -0.45312777 -0.39922383 -0.036099814 0.42238653 0.0057554827 0.18646783 -0.27107665 -0.03984488 0.4727299 0.12517884 -0.29070455 -0.1978917 -0.9014767 0.08772635 -0.29458493 -0.24262409 0.1651024 0.49757728 -0.20776486 -0.39706755 0.019505445 0.23414756 0.4387272 0.33015075 -0.39889276 -0.10430222 0.044311255 -0.33156562 0.37466273 0.16731228 0.032585524 -0.5414858 0.18772545 -0.052184742 0.14281157 -0.14615513 0.06304466 -0.69513464 0.62595886 0.083352424 0.44059667 -0.6542595 0.7221298 -0.44898513 0.21603633 0.3276617 -0.18934733 0.47873405 0.29501182 -0.06590347 0.13524696 -0.40522522 0.07041434 -0.12940495 -0.017200015 -0.5235082 0.7698594 -0.0076882956 0.055627067 0.1583158 0.4118702 0.52244866 0.0496024 0.450603 0.24284525 -0.018034521 0.145063 0.673718 0.48818755 0.2321422 -0.49415988 0.2170031 -0.027990306
বড় -0.26857874 0.48019594 0.019197391 0.09441835 0.19847006 -0.72860575 0.30691367 1.1102334 -0.5592398 -0.3033916 -0.29737186 -0.6899511 -0.14988452 0.16793951 0.22852527 -0.3133147 0.0753703 -0.5501736 -0.20802638 -0.89743423 0.06603358 0.09349316 0.1162693 -0.35272875 -0.12111665 0.030109085 -0.27088782 -0.4811136 -0.4133398 -0.021900134 0.46110678 0.024035659 0.2060017 -0.28080016 -0.040986355 0.4945726 0.1400077 -0.31799507 -0.20265841 -0.94960254 0.09240671 -0.33512095 -0.22443089 0.16553685 0.53575474 -0.2219773 -0.41344115 0.0139124235 0.22777052 0.47789344 0.34707215 -0.41739535 -0.13164829 0.07480573 -0.33944216 0.38900933 0.15498328 0.040815216 -0.5943121 0.19615558 -0.037327513 0.119934246 -0.12789164 0.09755278 -0.7091384 0.6664959 0.098185904 0.4385421 -0.68355983 0.7723818 -0.46007776 0.21592478 0.344304 -0.20993325 0.50178593 0.3247938 -0.08968939 0.15722588 -0.40617374 0.08125656 -0.1233534 -0.004378973 -0.55423594 0.77461463 -0.016058259 0.06691089 0.15629657 0.44461387 0.55346906 0.05665824 0.50771815 0.24637546 -0.021014825 0.15847947 0.7274464 0.5174172 0.24255902 -0.53679734 0.21059914 -0.015827307
অনেক -0.26291746 0.47831628 0.030377897 0.07557406 0.20377652 -0.72081286 0.28748345 1.0954492 -0.56186366 -0.30343956 -0.32070935 -0.7050188 -0.14465183 0.16830567 0.21074198 -0.3134704 0.067069486 -0.54700303 -0.20715044 -0.89662373 0.078810826 0.107135765 0.12328813 -0.3586476 -0.13477731 0.04294122 -0.27962834 -0.47051126 -0.42972198 -0.024355846 0.44963118 0.007906212 0.21371974 -0.30145687 -0.029270604 0.51796556 0.12031672 -0.31370524 -0.20998004 -0.9488779 0.09164028 -0.31778607 -0.2540924 0.17014062 0.5426533 -0.22415666 -0.39826867 0.008535341 0.24098611 0.4509028 0.360626 -0.43909913 -0.12616825 0.06872191 -0.34725565 0.3978989 0.15032722 0.04129788 -0.5823061 0.19349645 -0.03425718 0.1260665 -0.1397381 0.08875816 -0.71236444 0.6688428 0.10037092 0.4417896 -0.6854714 0.7596826 -0.47539133 0.23567763 0.35898277 -0.20079383 0.5024951 0.32457313 -0.07980922 0.12795874 -0.40465024 0.063706115 -0.12869237 -0.0063781342 -0.5584434 0.7939244 -0.009838039 0.057707362 0.17088205 0.42495105 0.5389512 0.07929111 0.49397552 0.25878528 -0.02073929 0.15586269 0.7074211 0.51451665 0.2328013 -0.52346796 0.2291977 -0.044823173
খানকির -0.270051 0.48046595 0.032725595 0.102118336 0.19347252 -0.696283 0.27791023 1.0461934 -0.54183596 -0.26260245 -0.34534132 -0.7103871 -0.14176507 0.15211743 0.2132878 -0.3055709 0.049921006 -0.5525334 -0.1716523 -0.8669219 0.06920392 0.11135364 0.13348506 -0.3552389 -0.13122444 0.039019994 -0.25590295 -0.45738554 -0.40446532 -0.021420846 0.45161647 0.029529767 0.21853128 -0.24700017 -0.041627306 0.51680267 0.11372206 -0.3342856 -0.19501525 -0.9226392 0.08818449 -0.33856425 -0.20451838 0.14757991 0.49623922 -0.2085459 -0.42036894 0.013787111 0.22214863 0.43359116 0.3691426 -0.4280378 -0.09788087 0.046190426 -0.3526852 0.3713347 0.15557122 0.032014553 -0.60178035 0.19236746 -0.024427665 0.15583558 -0.13949153 0.099847145 -0.68120056 0.6361099 0.08771932 0.44565707 -0.6876505 0.71569014 -0.44197568 0.23112987 0.32066515 -0.18881284 0.5088304 0.31905693 -0.091735296 0.13039123 -0.35429293 0.06807356 -0.14518695 -0.018971397 -0.5668711 0.78188246 -0.004042063 0.045626294 0.18892357 0.41551852 0.548862 0.05055995 0.4960276 0.24885976 -0.015709898 0.129791 0.6904327 0.50769347 0.2133237 -0.5416812 0.23184745 -0.02699336
টা -0.26638326 0.47940677 0.033680245 0.09164922 0.20371549 -0.7139193 0.28487077 1.1151501 -0.581529 -0.2909186 -0.34147012 -0.72187656 -0.14961785 0.16391805 0.22708575 -0.3348506 0.07023061 -0.5578098 -0.18851364 -0.8868909 0.0842936 0.09131707 0.13452591 -0.36391875 -0.11774667 0.041692927 -0.27079198 -0.47327343 -0.43958038 -0.03314876 0.45402506 0.021483459 0.21050419 -0.28073955 -0.029630091 0.51235193 0.13678804 -0.32679468 -0.22150771 -0.94868135 0.07505233 -0.31706846 -0.24915998 0.16602993 0.52452236 -0.22660239 -0.40690944 0.016340291 0.23841573 0.46791282 0.3599834 -0.44351563 -0.11373785 0.047107406 -0.34747902 0.3862784 0.15838498 0.035615996 -0.5811469 0.19604863 -0.043410424 0.14371446 -0.1405478 0.07316557 -0.73778415 0.6649133 0.07990202 0.46067962 -0.6988107 0.7675191 -0.4705881 0.23195036 0.34821168 -0.20556764 0.50159943 0.31725502 -0.078587286 0.1450933 -0.40214992 0.06712035 -0.12052799 -0.015111337 -0.56756943 0.7996384 -0.010765047 0.05905804 0.1734922 0.42216864 0.5479093 0.067203656 0.4957386 0.25157157 -0.025161058 0.16203947 0.71029645 0.5206685 0.23072658 -0.538662 0.22967836 -0.043703504
সেই -0.30022782 0.49840555 0.024019754 0.09019466 0.20152682 -0.7573346 0.31530264 1.1717345 -0.59594566 -0.303544 -0.33961704 -0.74566233 -0.14915209 0.16154473 0.24908605 -0.35993496 0.08430166 -0.5933962 -0.20110822 -0.95318913 0.10393044 0.11268567 0.12660517 -0.37009588 -0.13222553 0.041524693 -0.31146327 -0.50412405 -0.44899723 -0.038639754 0.4628938 0.022311348 0.21362463 -0.3024117 -0.024935832 0.54218864 0.14037518 -0.3436008 -0.22674467 -1.0057983 0.07972347 -0.3422754 -0.26122993 0.1942035 0.5603751 -0.23045377 -0.43272728 0.023265412 0.25374776 0.50299233 0.38231704 -0.4566164 -0.12991081 0.0570744 -0.37788105 0.41494244 0.18285584 0.05091342 -0.62078136 0.22098243 -0.049399003 0.15199666 -0.15416865 0.07566987 -0.7795427 0.71738446 0.083309464 0.49786374 -0.73812854 0.7948079 -0.51107687 0.26347107 0.38342103 -0.20305215 0.53841174 0.32755905 -0.086346604 0.15489113 -0.44235116 0.078987345 -0.13275094 0.0055354224 -0.58496153 0.84881186 0.0009268461 0.07003027 0.17140502 0.44844437 0.577761 0.06843717 0.5260242 0.26751783 -0.028197201 0.16567524 0.7526739 0.56391954 0.26078898 -0.55832595 0.2432254 -0.052394446
সরকার -0.2546277 0.44038564 0.024289489 0.08067888 0.18569094 -0.6624278 0.27903327 1.0461811 -0.5507701 -0.28096578 -0.31370834 -0.6619197 -0.12796552 0.15448315 0.21247533 -0.3125218 0.06880463 -0.5238627 -0.17925188 -0.84202826 0.087932214 0.08584912 0.11013925 -0.32952365 -0.10530389 0.015199705 -0.26245338 -0.45070636 -0.40731305 -0.031167917 0.4103927 0.023897294 0.19474132 -0.28875303 -0.020290323 0.4964394 0.12783867 -0.29707006 -0.20586273 -0.9012813 0.07694817 -0.30944175 -0.22798164 0.17703286 0.51209044 -0.22024655 -0.3921847 0.023143917 0.22956808 0.42676476 0.34605095 -0.39656147 -0.1116774 0.06729919 -0.34866476 0.3620093 0.15480304 0.031297475 -0.56543666 0.19974384 -0.047935057 0.14346857 -0.13451251 0.06866613 -0.6929727 0.6242196 0.083515115 0.44936448 -0.64576495 0.71619403 -0.45052448 0.24080098 0.33846852 -0.19348304 0.48819223 0.2987683 -0.05884403 0.11754272 -0.38192984 0.06605155 -0.11343469 -0.0124790175 -0.5275888 0.7438703 0.00089184445 0.049443886 0.16475216 0.4113409 0.51921904 0.07504204 0.45638976 0.24927524 -0.035443287 0.15183383 0.65423256 0.4934989 0.2298789 -0.49198413 0.22727343 -0.037494633
ছিল -0.29166743 0.48846957 0.028846469 0.08199421 0.20236383 -0.7274887 0.3005356 1.1184306 -0.5799855 -0.2916952 -0.3361587 -0.7307224 -0.14954343 0.16109774 0.22263145 -0.34551436 0.08044185 -0.57123303 -0.2089814 -0.9167744 0.09653199 0.11357724 0.12040319 -0.37788522 -0.12325207 0.029396843 -0.28992832 -0.48463416 -0.44672987 -0.039580204 0.45999458 0.02476777 0.20091857 -0.3072512 -0.0398693 0.52614135 0.11683926 -0.32019624 -0.2109884 -0.9780341 0.08529596 -0.32268345 -0.24311757 0.17896333 0.5397462 -0.24253619 -0.42140442 0.011937873 0.24755906 0.46794242 0.37811866 -0.44955462 -0.117395 0.0693098 -0.36694375 0.40530285 0.15973242 0.04470186 -0.6131476 0.2101629 -0.05007225 0.15055992 -0.13788038 0.06741651 -0.7403544 0.67763525 0.07990501 0.46988505 -0.68977386 0.75950646 -0.47542304 0.24640895 0.35556033 -0.19868475 0.5211102 0.32985595 -0.07726565 0.1502603 -0.41987786 0.058202792 -0.14413251 -0.0026833562 -0.56903166 0.80294824 -0.008628384 0.061927285 0.18319298 0.43035698 0.55855405 0.06794001 0.51471853 0.26374462 -0.0325765 0.14126243 0.7116638 0.53296417 0.25006628 -0.5241797 0.23869936 -0.030692462
হচ্ছে -0.2625501 0.45604226 0.027570806 0.08304097 0.1870352 -0.69187665 0.27230152 1.0529923 -0.5615276 -0.27060142 -0.31999192 -0.68541384 -0.14075385 0.16061796 0.22577569 -0.3242299 0.083456695 -0.5392111 -0.19633597 -0.8646007 0.08253059 0.089558385 0.1237508 -0.33960155 -0.12108279 0.028266905 -0.26833495 -0.44853583 -0.42773947 -0.03481625 0.42557582 0.020975422 0.19904676 -0.28902736 -0.025657905 0.48165488 0.1279671 -0.31257275 -0.21146685 -0.9026947 0.07509707 -0.3226609 -0.23148136 0.1577656 0.5263583 -0.23025812 -0.3995866 0.0048174993 0.23590122 0.44123137 0.33604363 -0.40793052 -0.12035722 0.067086905 -0.33863294 0.36844462 0.15632266 0.03125121 -0.54772174 0.20696197 -0.044553954 0.123989776 -0.13377963 0.07971332 -0.7033453 0.65131575 0.088805504 0.44167346 -0.663691 0.7356459 -0.457496 0.22437657 0.34167725 -0.19398355 0.47782993 0.31217346 -0.06968071 0.13395587 -0.3816305 0.058286786 -0.131263 -0.01968685 -0.5194882 0.7626827 0.0043684943 0.06237199 0.15184827 0.4072997 0.53646415 0.05930124 0.47088385 0.24020922 -0.014516473 0.14139554 0.6701033 0.49301833 0.22340007 -0.4955783 0.22169268 -0.03966516
মাগি -0.21839236 0.41461176 0.040265035 0.09418682 0.1786565 -0.6194149 0.24230056 0.93878853 -0.50470364 -0.24019033 -0.29271162 -0.5926877 -0.1122653 0.12393485 0.18769407 -0.2906652 0.040323798 -0.47531253 -0.17198035 -0.7745466 0.07351609 0.08195575 0.0932294 -0.3091066 -0.10624642 0.04540902 -0.22940527 -0.37987986 -0.35770178 -0.02787821 0.3875842 0.051239867 0.18739387 -0.2320268 -0.019840237 0.4489355 0.10001135 -0.28151533 -0.18484227 -0.82173955 0.079027474 -0.26390994 -0.19712184 0.13237455 0.44681293 -0.19797798 -0.3757272 0.0049520265 0.2074676 0.3917983 0.30078298 -0.3717278 -0.096994385 0.04127224 -0.28972733 0.3152524 0.11868612 0.04019507 -0.49664295 0.16966315 -0.02425161 0.13508353 -0.118714154 0.074821465 -0.6094693 0.583323 0.08335736 0.37855393 -0.5982969 0.63028836 -0.40487775 0.19407728 0.2831408 -0.17700249 0.43462157 0.2521534 -0.0630888 0.12077828 -0.32767275 0.063967474 -0.1051949 0.0022204793 -0.48648077 0.6822762 -0.005884989 0.055301692 0.16457324 0.3669767 0.481041 0.04094024 0.4361472 0.23068792 -0.02825021 0.1261505 0.61480534 0.4415253 0.18551402 -0.47596407 0.1982508 -0.021716703
আগে -0.2730067 0.49079877 0.03483917 0.082301535 0.19882344 -0.74516916 0.2981437 1.1438826 -0.58656996 -0.29432306 -0.33518952 -0.7395986 -0.1424102 0.15648296 0.23137143 -0.34749025 0.077058315 -0.58656836 -0.19593678 -0.92153305 0.090340175 0.10801291 0.12923285 -0.38224056 -0.13163795 0.032112874 -0.30386868 -0.48345745 -0.4428986 -0.043264683 0.47119194 0.02165785 0.21926093 -0.29701188 -0.032179818 0.5288671 0.13440822 -0.33457553 -0.21800585 -0.99405 0.09264326 -0.33896473 -0.2532821 0.19498213 0.5634508 -0.22634101 -0.41892937 0.020459201 0.24619664 0.4780189 0.3714112 -0.46093428 -0.12813313 0.05087848 -0.36407205 0.403955 0.18116856 0.033102687 -0.6231944 0.21850026 -0.047075722 0.1442945 -0.14449427 0.07832769 -0.74601936 0.6939976 0.093628295 0.47495034 -0.7103825 0.78750175 -0.49955103 0.23760433 0.36219212 -0.1938357 0.523311 0.32132974 -0.07115344 0.1368199 -0.42860934 0.06175832 -0.14166033 0.0029373455 -0.5846117 0.8397162 0.0070913066 0.05537689 0.18161093 0.44577593 0.57368267 0.07310308 0.519133 0.2586449 -0.02373541 0.16292982 0.7395283 0.54174066 0.2420469 -0.55297875 0.23778147 -0.04794717
দেশে -0.2562896 0.44146279 0.024317136 0.07155142 0.18677628 -0.6525625 0.25972253 1.0294236 -0.532377 -0.2699982 -0.2988887 -0.66735786 -0.13763194 0.1472205 0.21598902 -0.31145707 0.085700095 -0.5290193 -0.1875576 -0.8304458 0.08215438 0.09160133 0.12029377 -0.34684554 -0.11019336 0.038571183 -0.2595158 -0.43767184 -0.41305903 -0.026177736 0.41676578 0.020974997 0.18461622 -0.2757728 -0.037753902 0.47512498 0.11316408 -0.29475817 -0.1922024 -0.8845824 0.07214295 -0.3119028 -0.22034383 0.1748338 0.5013274 -0.2115663 -0.38289714 0.008762196 0.2248499 0.42896676 0.32479388 -0.40490106 -0.107948065 0.065406695 -0.34359246 0.37108853 0.14733006 0.044430066 -0.54935557 0.17666489 -0.03222487 0.12716481 -0.13976164 0.078421034 -0.6635035 0.62334985 0.07133026 0.43731177 -0.6332159 0.6903835 -0.4323387 0.2363919 0.33491698 -0.18842627 0.4658752 0.29301578 -0.06266281 0.119072914 -0.38315025 0.06815737 -0.11196975 -0.018160533 -0.5070041 0.74751264 0.003294917 0.0594252 0.16543128 0.38527024 0.51199377 0.07080641 0.4604804 0.22517544 -0.028144216 0.13904767 0.64925474 0.49169135 0.23468597 -0.4906647 0.20209993 -0.03364875
